Process name: p151
Process ID: 151
Logs:

(06/26/2025 07:04:33PM) Core:0 "DECLARE var0 = 84"
(06/26/2025 07:04:34PM) Core:0 "DECLARE var1 = 33"
(06/26/2025 07:04:34PM) Core:0 "DECLARE var2 = 26"
(06/26/2025 07:04:34PM) Core:0 "DECLARE var3 = 99"
(06/26/2025 07:04:34PM) Core:0 "DECLARE var4 = 63"
(06/26/2025 07:04:34PM) Core:0 "DECLARE var5 = 38"
(06/26/2025 07:04:34PM) Core:0 "Hello from p151 [6]"
(06/26/2025 07:04:34PM) Core:0 "DECLARE var7 = 40"
(06/26/2025 07:04:34PM) Core:0 "Hello from p151 [8]"
(06/26/2025 07:04:34PM) Core:0 "Hello from p151 [9]"
(06/26/2025 07:04:34PM) Core:0 "SUBTRACT result10 = 84 - 33"
(06/26/2025 07:04:36PM) Core:0 "Hello from p151 [13]"
(06/26/2025 07:04:36PM) Core:0 "SUBTRACT result14 = 63 - 84"
(06/26/2025 07:04:37PM) Core:0 "Loop iteration 1"
(06/26/2025 07:04:37PM) Core:0 "Loop iteration 2"
(06/26/2025 07:04:37PM) Core:0 "Loop iteration 3"
(06/26/2025 07:04:37PM) Core:0 "Loop iteration 1"
(06/26/2025 07:04:37PM) Core:0 "Loop iteration 2"
(06/26/2025 07:04:37PM) Core:0 "Loop iteration 3"
(06/26/2025 07:04:37PM) Core:0 "Loop iteration 1"
(06/26/2025 07:04:37PM) Core:0 "Loop iteration 2"
(06/26/2025 07:04:37PM) Core:0 "Loop iteration 3"
(06/26/2025 07:04:37PM) Core:0 "Loop iteration 1"
(06/26/2025 07:04:37PM) Core:0 "Loop iteration 2"
(06/26/2025 07:04:37PM) Core:0 "Loop iteration 3"
(06/26/2025 07:04:38PM) Core:0 "Hello from p151 [18]"
(06/26/2025 07:04:38PM) Core:0 "DECLARE var19 = 95"
(06/26/2025 07:04:38PM) Core:0 "Hello from p151 [20]"
(06/26/2025 07:04:38PM) Core:0 "Loop iteration 1"
(06/26/2025 07:04:38PM) Core:0 "Loop iteration 2"
(06/26/2025 07:04:38PM) Core:0 "Loop iteration 3"
(06/26/2025 07:04:38PM) Core:0 "Loop iteration 1"
(06/26/2025 07:04:38PM) Core:0 "Loop iteration 2"
(06/26/2025 07:04:38PM) Core:0 "Loop iteration 3"
(06/26/2025 07:04:38PM) Core:0 "Loop iteration 1"
(06/26/2025 07:04:38PM) Core:0 "Loop iteration 2"
(06/26/2025 07:04:38PM) Core:0 "Loop iteration 3"
(06/26/2025 07:04:38PM) Core:0 "SUBTRACT result22 = 26 - 99"
(06/26/2025 07:04:39PM) Core:0 "DECLARE var23 = 17"
(06/26/2025 07:04:39PM) Core:0 "Loop iteration 1"
(06/26/2025 07:04:39PM) Core:0 "Loop iteration 2"
(06/26/2025 07:04:39PM) Core:0 "Loop iteration 3"
(06/26/2025 07:04:39PM) Core:0 "Loop iteration 1"
(06/26/2025 07:04:39PM) Core:0 "Loop iteration 2"
(06/26/2025 07:04:39PM) Core:0 "Loop iteration 3"
(06/26/2025 07:04:39PM) Core:0 "Loop iteration 1"
(06/26/2025 07:04:39PM) Core:0 "Loop iteration 2"
(06/26/2025 07:04:39PM) Core:0 "Loop iteration 3"
(06/26/2025 07:04:39PM) Core:0 "Loop iteration 1"
(06/26/2025 07:04:39PM) Core:0 "Loop iteration 2"
(06/26/2025 07:04:39PM) Core:0 "Loop iteration 3"
(06/26/2025 07:04:39PM) Core:0 "Loop iteration 1"
(06/26/2025 07:04:39PM) Core:0 "Loop iteration 2"
(06/26/2025 07:04:39PM) Core:0 "Loop iteration 3"
(06/26/2025 07:04:39PM) Core:0 "DECLARE var25 = 9"
(06/26/2025 07:04:39PM) Core:0 "Hello from p151 [26]"
(06/26/2025 07:04:39PM) Core:0 "Hello from p151 [28]"
(06/26/2025 07:04:39PM) Core:0 "SUBTRACT result29 = 63 - 84"
(06/26/2025 07:04:40PM) Core:0 "SUBTRACT result31 = 33 - 26"
(06/26/2025 07:04:40PM) Core:0 "Hello from p151 [32]"
(06/26/2025 07:04:41PM) Core:0 "DECLARE var33 = 26"
(06/26/2025 07:04:41PM) Core:0 "ADD result34 = 63 + 84"
(06/26/2025 07:04:41PM) Core:0 "SUBTRACT result36 = 33 - 26"
(06/26/2025 07:04:41PM) Core:0 "DECLARE var37 = 99"
(06/26/2025 07:04:42PM) Core:0 "DECLARE var39 = 43"
(06/26/2025 07:04:42PM) Core:0 "DECLARE var40 = 88"
(06/26/2025 07:04:43PM) Core:0 "Loop iteration 1"
(06/26/2025 07:04:43PM) Core:0 "Loop iteration 2"
(06/26/2025 07:04:43PM) Core:0 "Loop iteration 3"
(06/26/2025 07:04:43PM) Core:0 "Loop iteration 1"
(06/26/2025 07:04:43PM) Core:0 "Loop iteration 2"
(06/26/2025 07:04:43PM) Core:0 "Loop iteration 3"
(06/26/2025 07:04:43PM) Core:0 "Loop iteration 1"
(06/26/2025 07:04:43PM) Core:0 "Loop iteration 2"
(06/26/2025 07:04:43PM) Core:0 "Loop iteration 3"
(06/26/2025 07:04:43PM) Core:0 "Loop iteration 1"
(06/26/2025 07:04:43PM) Core:0 "Loop iteration 2"
(06/26/2025 07:04:43PM) Core:0 "Loop iteration 3"
(06/26/2025 07:04:43PM) Core:0 "Loop iteration 1"
(06/26/2025 07:04:43PM) Core:0 "Loop iteration 2"
(06/26/2025 07:04:43PM) Core:0 "Loop iteration 3"
(06/26/2025 07:04:43PM) Core:0 "DECLARE var42 = 93"
(06/26/2025 07:04:43PM) Core:0 "SUBTRACT result43 = 99 - 63"
(06/26/2025 07:04:43PM) Core:0 "ADD result44 = 63 + 84"
(06/26/2025 07:04:43PM) Core:0 "Hello from p151 [45]"
(06/26/2025 07:04:43PM) Core:0 "SUBTRACT result46 = 33 - 26"
(06/26/2025 07:04:43PM) Core:0 "ADD result47 = 26 + 99"
(06/26/2025 07:04:43PM) Core:0 "Hello from p151 [48]"
(06/26/2025 07:04:44PM) Core:0 "Loop iteration 1"
(06/26/2025 07:04:44PM) Core:0 "Loop iteration 2"
(06/26/2025 07:04:44PM) Core:0 "Loop iteration 3"
(06/26/2025 07:04:44PM) Core:0 "Loop iteration 1"
(06/26/2025 07:04:44PM) Core:0 "Loop iteration 2"
(06/26/2025 07:04:44PM) Core:0 "Loop iteration 3"
(06/26/2025 07:04:44PM) Core:0 "ADD result51 = 33 + 26"
(06/26/2025 07:04:45PM) Core:0 "Loop iteration 1"
(06/26/2025 07:04:45PM) Core:0 "Loop iteration 2"
(06/26/2025 07:04:45PM) Core:0 "Loop iteration 3"
(06/26/2025 07:04:45PM) Core:0 "Loop iteration 1"
(06/26/2025 07:04:45PM) Core:0 "Loop iteration 2"
(06/26/2025 07:04:45PM) Core:0 "Loop iteration 3"
(06/26/2025 07:04:45PM) Core:0 "Loop iteration 1"
(06/26/2025 07:04:45PM) Core:0 "Loop iteration 2"
(06/26/2025 07:04:45PM) Core:0 "Loop iteration 3"
(06/26/2025 07:04:45PM) Core:0 "Loop iteration 1"
(06/26/2025 07:04:45PM) Core:0 "Loop iteration 2"
(06/26/2025 07:04:45PM) Core:0 "Loop iteration 3"
(06/26/2025 07:04:45PM) Core:0 "Loop iteration 1"
(06/26/2025 07:04:45PM) Core:0 "Loop iteration 2"
(06/26/2025 07:04:45PM) Core:0 "Loop iteration 3"
(06/26/2025 07:04:45PM) Core:0 "SUBTRACT result55 = 84 - 33"
(06/26/2025 07:04:45PM) Core:0 "SUBTRACT result56 = 33 - 26"
(06/26/2025 07:04:45PM) Core:0 "Hello from p151 [57]"
(06/26/2025 07:04:46PM) Core:0 "SUBTRACT result58 = 99 - 63"
(06/26/2025 07:04:46PM) Core:0 "ADD result59 = 63 + 84"
(06/26/2025 07:04:46PM) Core:0 "ADD result60 = 84 + 33"
(06/26/2025 07:04:46PM) Core:0 "SUBTRACT result61 = 33 - 26"
(06/27/2025 12:18:29AM) Core:2 "DECLARE var0 = 72"
(06/27/2025 12:18:29AM) Core:2 "DECLARE var1 = 79"
(06/27/2025 12:18:29AM) Core:2 "DECLARE var2 = 7"
(06/27/2025 12:18:53AM) Core:2 "DECLARE var3 = 67"
(06/27/2025 12:18:53AM) Core:2 "DECLARE var4 = 56"
(06/27/2025 12:18:53AM) Core:2 "SUBTRACT result5 = 72 - 79"
(06/27/2025 12:19:23AM) Core:3 "ADD result7 = 7 + 67"
(06/27/2025 12:19:23AM) Core:3 "DECLARE var8 = 7"
(06/27/2025 12:19:56AM) Core:2 "DECLARE var9 = 81"
(06/27/2025 12:19:56AM) Core:2 "Loop iteration 1"
(06/27/2025 12:19:56AM) Core:2 "Loop iteration 2"
(06/27/2025 12:19:56AM) Core:2 "Loop iteration 3"
(06/27/2025 12:19:56AM) Core:2 "Loop iteration 1"
(06/27/2025 12:19:56AM) Core:2 "Loop iteration 2"
(06/27/2025 12:19:56AM) Core:2 "Loop iteration 3"
(06/27/2025 12:19:56AM) Core:2 "Loop iteration 1"
(06/27/2025 12:19:56AM) Core:2 "Loop iteration 2"
(06/27/2025 12:19:56AM) Core:2 "Loop iteration 3"
(06/27/2025 12:19:56AM) Core:2 "Loop iteration 1"
(06/27/2025 12:19:56AM) Core:2 "Loop iteration 2"
(06/27/2025 12:19:56AM) Core:2 "Loop iteration 3"
(06/27/2025 12:19:56AM) Core:2 "DECLARE var11 = 7"
(06/27/2025 12:20:34AM) Core:0 "ADD result13 = 67 + 56"
(06/27/2025 12:21:21AM) Core:3 "ADD result15 = 72 + 79"
(06/27/2025 12:21:21AM) Core:3 "Hello from p151 [16]"
(06/27/2025 12:21:21AM) Core:3 "DECLARE var17 = 14"
(06/27/2025 12:22:11AM) Core:0 "Loop iteration 1"
(06/27/2025 12:22:11AM) Core:0 "Loop iteration 2"
(06/27/2025 12:22:11AM) Core:0 "Loop iteration 3"
(06/27/2025 12:22:11AM) Core:0 "Loop iteration 1"
(06/27/2025 12:22:11AM) Core:0 "Loop iteration 2"
(06/27/2025 12:22:11AM) Core:0 "Loop iteration 3"
(06/27/2025 12:22:11AM) Core:0 "Hello from p151 [19]"
(06/27/2025 12:22:11AM) Core:0 "Loop iteration 1"
(06/27/2025 12:22:11AM) Core:0 "Loop iteration 2"
(06/27/2025 12:22:11AM) Core:0 "Loop iteration 3"
(06/27/2025 12:22:11AM) Core:0 "Loop iteration 1"
(06/27/2025 12:22:11AM) Core:0 "Loop iteration 2"
(06/27/2025 12:22:11AM) Core:0 "Loop iteration 3"
(06/27/2025 12:22:11AM) Core:0 "Loop iteration 1"
(06/27/2025 12:22:11AM) Core:0 "Loop iteration 2"
(06/27/2025 12:22:11AM) Core:0 "Loop iteration 3"
(06/27/2025 12:22:11AM) Core:0 "Loop iteration 1"
(06/27/2025 12:22:11AM) Core:0 "Loop iteration 2"
(06/27/2025 12:22:11AM) Core:0 "Loop iteration 3"
(06/27/2025 12:23:09AM) Core:0 "ADD result21 = 79 + 7"
(06/27/2025 12:23:09AM) Core:0 "Loop iteration 1"
(06/27/2025 12:23:09AM) Core:0 "Loop iteration 2"
(06/27/2025 12:23:09AM) Core:0 "Loop iteration 3"
(06/27/2025 12:23:09AM) Core:0 "Loop iteration 1"
(06/27/2025 12:23:09AM) Core:0 "Loop iteration 2"
(06/27/2025 12:23:09AM) Core:0 "Loop iteration 3"
(06/27/2025 12:23:09AM) Core:0 "Loop iteration 1"
(06/27/2025 12:23:09AM) Core:0 "Loop iteration 2"
(06/27/2025 12:23:09AM) Core:0 "Loop iteration 3"
(06/27/2025 12:23:09AM) Core:0 "Loop iteration 1"
(06/27/2025 12:23:09AM) Core:0 "Loop iteration 2"
(06/27/2025 12:23:09AM) Core:0 "Loop iteration 3"
(06/27/2025 12:23:09AM) Core:0 "Loop iteration 1"
(06/27/2025 12:23:09AM) Core:0 "Loop iteration 2"
(06/27/2025 12:23:09AM) Core:0 "Loop iteration 3"
(06/27/2025 12:23:09AM) Core:0 "Loop iteration 1"
(06/27/2025 12:23:09AM) Core:0 "Loop iteration 2"
(06/27/2025 12:23:09AM) Core:0 "Loop iteration 3"
(06/27/2025 12:23:09AM) Core:0 "Loop iteration 1"
(06/27/2025 12:23:09AM) Core:0 "Loop iteration 2"
(06/27/2025 12:23:09AM) Core:0 "Loop iteration 3"
