Process name: p39
Process ID: 39
Logs:

(06/26/2025 06:57:50PM) Core:1 "DECLARE var0 = 11"
(06/26/2025 06:57:50PM) Core:1 "DECLARE var1 = 61"
(06/26/2025 06:57:51PM) Core:1 "DECLARE var2 = 10"
(06/26/2025 06:57:51PM) Core:1 "DECLARE var3 = 49"
(06/26/2025 06:57:51PM) Core:1 "DECLARE var4 = 89"
(06/26/2025 06:57:51PM) Core:1 "ADD result5 = 11 + 61"
(06/26/2025 06:57:51PM) Core:1 "Hello from p39 [6]"
(06/26/2025 06:57:51PM) Core:1 "DECLARE var8 = 26"
(06/26/2025 06:57:52PM) Core:1 "DECLARE var9 = 93"
(06/26/2025 06:57:52PM) Core:1 "DECLARE var10 = 19"
(06/26/2025 06:57:52PM) Core:1 "Loop iteration 1"
(06/26/2025 06:57:52PM) Core:1 "Loop iteration 2"
(06/26/2025 06:57:52PM) Core:1 "Loop iteration 3"
(06/26/2025 06:57:52PM) Core:1 "Loop iteration 1"
(06/26/2025 06:57:52PM) Core:1 "Loop iteration 2"
(06/26/2025 06:57:52PM) Core:1 "Loop iteration 3"
(06/26/2025 06:57:52PM) Core:1 "Loop iteration 1"
(06/26/2025 06:57:52PM) Core:1 "Loop iteration 2"
(06/26/2025 06:57:52PM) Core:1 "Loop iteration 3"
(06/26/2025 06:57:52PM) Core:1 "Loop iteration 1"
(06/26/2025 06:57:52PM) Core:1 "Loop iteration 2"
(06/26/2025 06:57:52PM) Core:1 "Loop iteration 3"
(06/26/2025 06:57:52PM) Core:1 "Loop iteration 1"
(06/26/2025 06:57:52PM) Core:1 "Loop iteration 2"
(06/26/2025 06:57:52PM) Core:1 "Loop iteration 3"
(06/26/2025 06:57:52PM) Core:1 "Hello from p39 [12]"
(06/26/2025 06:57:52PM) Core:1 "Loop iteration 1"
(06/26/2025 06:57:52PM) Core:1 "Loop iteration 2"
(06/26/2025 06:57:52PM) Core:1 "Loop iteration 3"
(06/26/2025 06:57:52PM) Core:1 "Loop iteration 1"
(06/26/2025 06:57:52PM) Core:1 "Loop iteration 2"
(06/26/2025 06:57:52PM) Core:1 "Loop iteration 3"
(06/26/2025 06:57:52PM) Core:1 "Loop iteration 1"
(06/26/2025 06:57:52PM) Core:1 "Loop iteration 2"
(06/26/2025 06:57:52PM) Core:1 "Loop iteration 3"
(06/26/2025 06:57:52PM) Core:1 "Loop iteration 1"
(06/26/2025 06:57:52PM) Core:1 "Loop iteration 2"
(06/26/2025 06:57:52PM) Core:1 "Loop iteration 3"
(06/26/2025 06:57:52PM) Core:1 "Loop iteration 1"
(06/26/2025 06:57:52PM) Core:1 "Loop iteration 2"
(06/26/2025 06:57:52PM) Core:1 "Loop iteration 3"
(06/26/2025 06:57:52PM) Core:1 "ADD result15 = 11 + 61"
(06/26/2025 06:57:53PM) Core:1 "Loop iteration 1"
(06/26/2025 06:57:53PM) Core:1 "Loop iteration 2"
(06/26/2025 06:57:53PM) Core:1 "Loop iteration 3"
(06/26/2025 06:57:53PM) Core:1 "Loop iteration 1"
(06/26/2025 06:57:53PM) Core:1 "Loop iteration 2"
(06/26/2025 06:57:53PM) Core:1 "Loop iteration 3"
(06/26/2025 06:57:53PM) Core:1 "Loop iteration 1"
(06/26/2025 06:57:53PM) Core:1 "Loop iteration 2"
(06/26/2025 06:57:53PM) Core:1 "Loop iteration 3"
(06/26/2025 06:57:53PM) Core:1 "Loop iteration 1"
(06/26/2025 06:57:53PM) Core:1 "Loop iteration 2"
(06/26/2025 06:57:53PM) Core:1 "Loop iteration 3"
(06/26/2025 06:57:53PM) Core:1 "Loop iteration 1"
(06/26/2025 06:57:53PM) Core:1 "Loop iteration 2"
(06/26/2025 06:57:53PM) Core:1 "Loop iteration 3"
(06/26/2025 06:57:53PM) Core:1 "Loop iteration 1"
(06/26/2025 06:57:53PM) Core:1 "Loop iteration 2"
(06/26/2025 06:57:53PM) Core:1 "Loop iteration 3"
(06/26/2025 06:57:53PM) Core:1 "Loop iteration 1"
(06/26/2025 06:57:53PM) Core:1 "Loop iteration 2"
(06/26/2025 06:57:53PM) Core:1 "Loop iteration 3"
(06/26/2025 06:57:53PM) Core:1 "Hello from p39 [18]"
(06/26/2025 06:57:53PM) Core:1 "ADD result19 = 89 + 11"
(06/26/2025 06:57:53PM) Core:1 "Hello from p39 [20]"
(06/26/2025 06:57:53PM) Core:1 "ADD result21 = 61 + 10"
(06/26/2025 06:57:53PM) Core:1 "Loop iteration 1"
(06/26/2025 06:57:53PM) Core:1 "Loop iteration 2"
(06/26/2025 06:57:53PM) Core:1 "Loop iteration 3"
(06/26/2025 06:57:53PM) Core:1 "Loop iteration 1"
(06/26/2025 06:57:53PM) Core:1 "Loop iteration 2"
(06/26/2025 06:57:53PM) Core:1 "Loop iteration 3"
(06/26/2025 06:57:53PM) Core:1 "Loop iteration 1"
(06/26/2025 06:57:53PM) Core:1 "Loop iteration 2"
(06/26/2025 06:57:53PM) Core:1 "Loop iteration 3"
(06/26/2025 06:57:53PM) Core:1 "Loop iteration 1"
(06/26/2025 06:57:53PM) Core:1 "Loop iteration 2"
(06/26/2025 06:57:53PM) Core:1 "Loop iteration 3"
(06/26/2025 06:57:53PM) Core:1 "Loop iteration 1"
(06/26/2025 06:57:53PM) Core:1 "Loop iteration 2"
(06/26/2025 06:57:53PM) Core:1 "Loop iteration 3"
(06/26/2025 06:57:53PM) Core:1 "SUBTRACT result23 = 49 - 89"
(06/26/2025 06:57:53PM) Core:1 "ADD result24 = 89 + 11"
(06/26/2025 06:57:54PM) Core:1 "Loop iteration 1"
(06/26/2025 06:57:54PM) Core:1 "Loop iteration 2"
(06/26/2025 06:57:54PM) Core:1 "Loop iteration 3"
(06/26/2025 06:57:54PM) Core:1 "Loop iteration 1"
(06/26/2025 06:57:54PM) Core:1 "Loop iteration 2"
(06/26/2025 06:57:54PM) Core:1 "Loop iteration 3"
(06/26/2025 06:57:54PM) Core:1 "Loop iteration 1"
(06/26/2025 06:57:54PM) Core:1 "Loop iteration 2"
(06/26/2025 06:57:54PM) Core:1 "Loop iteration 3"
(06/26/2025 06:57:54PM) Core:1 "Loop iteration 1"
(06/26/2025 06:57:54PM) Core:1 "Loop iteration 2"
(06/26/2025 06:57:54PM) Core:1 "Loop iteration 3"
(06/26/2025 06:57:54PM) Core:1 "Loop iteration 1"
(06/26/2025 06:57:54PM) Core:1 "Loop iteration 2"
(06/26/2025 06:57:54PM) Core:1 "Loop iteration 3"
(06/26/2025 06:57:54PM) Core:1 "DECLARE var26 = 19"
(06/26/2025 06:57:54PM) Core:1 "ADD result27 = 10 + 49"
(06/26/2025 06:57:54PM) Core:1 "DECLARE var28 = 44"
(06/26/2025 06:57:54PM) Core:1 "Loop iteration 1"
(06/26/2025 06:57:54PM) Core:1 "Loop iteration 2"
(06/26/2025 06:57:54PM) Core:1 "Loop iteration 3"
(06/26/2025 06:57:54PM) Core:1 "Loop iteration 1"
(06/26/2025 06:57:54PM) Core:1 "Loop iteration 2"
(06/26/2025 06:57:54PM) Core:1 "Loop iteration 3"
(06/26/2025 06:57:54PM) Core:1 "Loop iteration 1"
(06/26/2025 06:57:54PM) Core:1 "Loop iteration 2"
(06/26/2025 06:57:54PM) Core:1 "Loop iteration 3"
(06/26/2025 06:57:54PM) Core:1 "ADD result30 = 11 + 61"
(06/26/2025 06:57:54PM) Core:1 "DECLARE var31 = 44"
(06/26/2025 06:57:54PM) Core:1 "DECLARE var32 = 22"
(06/26/2025 06:57:54PM) Core:1 "Hello from p39 [33]"
(06/26/2025 06:57:55PM) Core:1 "Loop iteration 1"
(06/26/2025 06:57:55PM) Core:1 "Loop iteration 2"
(06/26/2025 06:57:55PM) Core:1 "Loop iteration 3"
(06/26/2025 06:57:55PM) Core:1 "Loop iteration 1"
(06/26/2025 06:57:55PM) Core:1 "Loop iteration 2"
(06/26/2025 06:57:55PM) Core:1 "Loop iteration 3"
(06/26/2025 06:57:55PM) Core:1 "Loop iteration 1"
(06/26/2025 06:57:55PM) Core:1 "Loop iteration 2"
(06/26/2025 06:57:55PM) Core:1 "Loop iteration 3"
(06/26/2025 06:57:55PM) Core:1 "DECLARE var35 = 30"
(06/26/2025 06:57:55PM) Core:1 "DECLARE var36 = 78"
(06/26/2025 06:57:55PM) Core:1 "SUBTRACT result37 = 10 - 49"
(06/26/2025 06:57:55PM) Core:1 "DECLARE var38 = 68"
(06/26/2025 06:57:55PM) Core:1 "Hello from p39 [39]"
(06/26/2025 06:57:55PM) Core:1 "SUBTRACT result40 = 11 - 61"
(06/26/2025 06:57:55PM) Core:1 "DECLARE var41 = 19"
(06/26/2025 06:57:55PM) Core:1 "Loop iteration 1"
(06/26/2025 06:57:55PM) Core:1 "Loop iteration 2"
(06/26/2025 06:57:55PM) Core:1 "Loop iteration 3"
(06/26/2025 06:57:55PM) Core:1 "Loop iteration 1"
(06/26/2025 06:57:55PM) Core:1 "Loop iteration 2"
(06/26/2025 06:57:55PM) Core:1 "Loop iteration 3"
(06/26/2025 06:57:56PM) Core:1 "Hello from p39 [43]"
(06/26/2025 06:57:56PM) Core:1 "DECLARE var44 = 26"
(06/26/2025 06:57:56PM) Core:1 "DECLARE var45 = 64"
(06/26/2025 06:57:56PM) Core:1 "Loop iteration 1"
(06/26/2025 06:57:56PM) Core:1 "Loop iteration 2"
(06/26/2025 06:57:56PM) Core:1 "Loop iteration 3"
(06/26/2025 06:57:56PM) Core:1 "Loop iteration 1"
(06/26/2025 06:57:56PM) Core:1 "Loop iteration 2"
(06/26/2025 06:57:56PM) Core:1 "Loop iteration 3"
(06/26/2025 06:57:56PM) Core:1 "Loop iteration 1"
(06/26/2025 06:57:56PM) Core:1 "Loop iteration 2"
(06/26/2025 06:57:56PM) Core:1 "Loop iteration 3"
(06/26/2025 06:57:56PM) Core:1 "Loop iteration 1"
(06/26/2025 06:57:56PM) Core:1 "Loop iteration 2"
(06/26/2025 06:57:56PM) Core:1 "Loop iteration 3"
(06/26/2025 06:57:56PM) Core:1 "DECLARE var47 = 17"
(06/26/2025 06:57:56PM) Core:1 "Hello from p39 [48]"
(06/26/2025 06:57:56PM) Core:1 "Hello from p39 [49]"
(06/26/2025 06:57:56PM) Core:1 "Loop iteration 1"
(06/26/2025 06:57:56PM) Core:1 "Loop iteration 2"
(06/26/2025 06:57:56PM) Core:1 "Loop iteration 3"
(06/26/2025 06:57:56PM) Core:1 "Loop iteration 1"
(06/26/2025 06:57:56PM) Core:1 "Loop iteration 2"
(06/26/2025 06:57:56PM) Core:1 "Loop iteration 3"
(06/26/2025 06:57:56PM) Core:1 "Loop iteration 1"
(06/26/2025 06:57:56PM) Core:1 "Loop iteration 2"
(06/26/2025 06:57:56PM) Core:1 "Loop iteration 3"
(06/26/2025 06:57:56PM) Core:1 "Loop iteration 1"
(06/26/2025 06:57:56PM) Core:1 "Loop iteration 2"
(06/26/2025 06:57:56PM) Core:1 "Loop iteration 3"
(06/26/2025 06:57:56PM) Core:1 "Loop iteration 1"
(06/26/2025 06:57:56PM) Core:1 "Loop iteration 2"
(06/26/2025 06:57:56PM) Core:1 "Loop iteration 3"
(06/26/2025 06:57:56PM) Core:1 "Loop iteration 1"
(06/26/2025 06:57:56PM) Core:1 "Loop iteration 2"
(06/26/2025 06:57:56PM) Core:1 "Loop iteration 3"
(06/26/2025 06:57:56PM) Core:1 "Loop iteration 1"
(06/26/2025 06:57:56PM) Core:1 "Loop iteration 2"
(06/26/2025 06:57:56PM) Core:1 "Loop iteration 3"
(06/26/2025 06:57:57PM) Core:1 "ADD result52 = 10 + 49"
(06/26/2025 06:57:57PM) Core:1 "DECLARE var53 = 44"
(06/26/2025 06:57:57PM) Core:1 "SUBTRACT result54 = 89 - 11"
(06/26/2025 06:57:57PM) Core:1 "Hello from p39 [55]"
(06/26/2025 06:57:57PM) Core:1 "ADD result56 = 61 + 10"
(06/26/2025 06:57:58PM) Core:1 "Loop iteration 1"
(06/26/2025 06:57:58PM) Core:1 "Loop iteration 2"
(06/26/2025 06:57:58PM) Core:1 "Loop iteration 3"
(06/26/2025 06:57:58PM) Core:1 "Loop iteration 1"
(06/26/2025 06:57:58PM) Core:1 "Loop iteration 2"
(06/26/2025 06:57:58PM) Core:1 "Loop iteration 3"
(06/26/2025 06:57:58PM) Core:1 "Loop iteration 1"
(06/26/2025 06:57:58PM) Core:1 "Loop iteration 2"
(06/26/2025 06:57:58PM) Core:1 "Loop iteration 3"
(06/26/2025 06:57:58PM) Core:1 "DECLARE var60 = 76"
(06/26/2025 06:57:59PM) Core:1 "Loop iteration 1"
(06/26/2025 06:57:59PM) Core:1 "Loop iteration 2"
(06/26/2025 06:57:59PM) Core:1 "Loop iteration 3"
(06/26/2025 06:57:59PM) Core:1 "Loop iteration 1"
(06/26/2025 06:57:59PM) Core:1 "Loop iteration 2"
(06/26/2025 06:57:59PM) Core:1 "Loop iteration 3"
(06/26/2025 06:57:59PM) Core:1 "SUBTRACT result62 = 10 - 49"
(06/26/2025 06:57:59PM) Core:1 "Loop iteration 1"
(06/26/2025 06:57:59PM) Core:1 "Loop iteration 2"
(06/26/2025 06:57:59PM) Core:1 "Loop iteration 3"
(06/26/2025 06:57:59PM) Core:1 "Loop iteration 1"
(06/26/2025 06:57:59PM) Core:1 "Loop iteration 2"
(06/26/2025 06:57:59PM) Core:1 "Loop iteration 3"
(06/26/2025 06:57:59PM) Core:1 "Loop iteration 1"
(06/26/2025 06:57:59PM) Core:1 "Loop iteration 2"
(06/26/2025 06:57:59PM) Core:1 "Loop iteration 3"
(06/26/2025 06:57:59PM) Core:1 "Loop iteration 1"
(06/26/2025 06:57:59PM) Core:1 "Loop iteration 2"
(06/26/2025 06:57:59PM) Core:1 "Loop iteration 3"
(06/26/2025 06:57:59PM) Core:1 "Loop iteration 1"
(06/26/2025 06:57:59PM) Core:1 "Loop iteration 2"
(06/26/2025 06:57:59PM) Core:1 "Loop iteration 3"
(06/26/2025 06:57:59PM) Core:1 "DECLARE var64 = 62"
(06/26/2025 06:58:00PM) Core:1 "DECLARE var66 = 19"
(06/26/2025 06:58:01PM) Core:1 "Loop iteration 1"
(06/26/2025 06:58:01PM) Core:1 "Loop iteration 2"
(06/26/2025 06:58:01PM) Core:1 "Loop iteration 3"
(06/26/2025 06:58:01PM) Core:1 "Loop iteration 1"
(06/26/2025 06:58:01PM) Core:1 "Loop iteration 2"
(06/26/2025 06:58:01PM) Core:1 "Loop iteration 3"
(06/26/2025 06:58:01PM) Core:1 "Loop iteration 1"
(06/26/2025 06:58:01PM) Core:1 "Loop iteration 2"
(06/26/2025 06:58:01PM) Core:1 "Loop iteration 3"
(06/26/2025 06:58:01PM) Core:1 "DECLARE var69 = 44"
(06/26/2025 06:58:01PM) Core:1 "Loop iteration 1"
(06/26/2025 06:58:01PM) Core:1 "Loop iteration 2"
(06/26/2025 06:58:01PM) Core:1 "Loop iteration 3"
(06/26/2025 06:58:01PM) Core:1 "Loop iteration 1"
(06/26/2025 06:58:01PM) Core:1 "Loop iteration 2"
(06/26/2025 06:58:01PM) Core:1 "Loop iteration 3"
(06/26/2025 06:58:01PM) Core:1 "ADD result71 = 61 + 10"
(06/26/2025 06:58:01PM) Core:1 "Hello from p39 [72]"
(06/26/2025 06:58:01PM) Core:1 "DECLARE var73 = 87"
(06/26/2025 06:58:01PM) Core:1 "DECLARE var74 = 46"
(06/26/2025 06:58:01PM) Core:1 "Hello from p39 [75]"
(06/26/2025 06:58:02PM) Core:1 "ADD result76 = 61 + 10"
(06/26/2025 06:58:02PM) Core:1 "Loop iteration 1"
(06/26/2025 06:58:02PM) Core:1 "Loop iteration 2"
(06/26/2025 06:58:02PM) Core:1 "Loop iteration 3"
(06/26/2025 06:58:02PM) Core:1 "Loop iteration 1"
(06/26/2025 06:58:02PM) Core:1 "Loop iteration 2"
(06/26/2025 06:58:02PM) Core:1 "Loop iteration 3"
(06/26/2025 06:58:02PM) Core:1 "Loop iteration 1"
(06/26/2025 06:58:02PM) Core:1 "Loop iteration 2"
(06/26/2025 06:58:02PM) Core:1 "Loop iteration 3"
(06/26/2025 06:58:02PM) Core:1 "Loop iteration 1"
(06/26/2025 06:58:02PM) Core:1 "Loop iteration 2"
(06/26/2025 06:58:02PM) Core:1 "Loop iteration 3"
(06/26/2025 06:58:02PM) Core:1 "Loop iteration 1"
(06/26/2025 06:58:02PM) Core:1 "Loop iteration 2"
(06/26/2025 06:58:02PM) Core:1 "Loop iteration 3"
(06/26/2025 06:58:02PM) Core:1 "Loop iteration 1"
(06/26/2025 06:58:02PM) Core:1 "Loop iteration 2"
(06/26/2025 06:58:02PM) Core:1 "Loop iteration 3"
(06/26/2025 06:58:02PM) Core:1 "Loop iteration 1"
(06/26/2025 06:58:02PM) Core:1 "Loop iteration 2"
(06/26/2025 06:58:02PM) Core:1 "Loop iteration 3"
(06/26/2025 06:58:02PM) Core:1 "Loop iteration 1"
(06/26/2025 06:58:02PM) Core:1 "Loop iteration 2"
(06/26/2025 06:58:02PM) Core:1 "Loop iteration 3"
(06/26/2025 06:58:02PM) Core:1 "Loop iteration 1"
(06/26/2025 06:58:02PM) Core:1 "Loop iteration 2"
(06/26/2025 06:58:02PM) Core:1 "Loop iteration 3"
(06/26/2025 08:33:19PM) Core:2 "DECLARE var0 = 64"
(06/26/2025 08:33:19PM) Core:2 "DECLARE var1 = 20"
(06/26/2025 08:33:19PM) Core:2 "DECLARE var2 = 37"
(06/26/2025 08:33:19PM) Core:2 "DECLARE var3 = 76"
(06/26/2025 08:33:19PM) Core:2 "DECLARE var4 = 57"
(06/26/2025 08:33:19PM) Core:2 "Hello from p39 [5]"
(06/26/2025 08:33:19PM) Core:2 "Hello from p39 [6]"
(06/26/2025 08:33:20PM) Core:2 "DECLARE var7 = 69"
(06/26/2025 08:33:20PM) Core:2 "DECLARE var8 = 36"
(06/26/2025 08:33:20PM) Core:2 "Hello from p39 [9]"
(06/26/2025 08:33:20PM) Core:2 "ADD result10 = 64 + 20"
(06/26/2025 08:33:20PM) Core:2 "ADD result11 = 20 + 37"
(06/26/2025 08:33:20PM) Core:2 "SUBTRACT result12 = 37 - 76"
(06/26/2025 08:33:20PM) Core:2 "Hello from p39 [13]"
(06/26/2025 08:33:20PM) Core:2 "Loop iteration 1"
(06/26/2025 08:33:20PM) Core:2 "Loop iteration 2"
(06/26/2025 08:33:20PM) Core:2 "Loop iteration 3"
(06/26/2025 08:33:20PM) Core:2 "Loop iteration 1"
(06/26/2025 08:33:20PM) Core:2 "Loop iteration 2"
(06/26/2025 08:33:20PM) Core:2 "Loop iteration 3"
(06/26/2025 08:33:20PM) Core:2 "Loop iteration 1"
(06/26/2025 08:33:20PM) Core:2 "Loop iteration 2"
(06/26/2025 08:33:20PM) Core:2 "Loop iteration 3"
(06/26/2025 08:33:20PM) Core:2 "ADD result15 = 64 + 20"
(06/26/2025 08:33:21PM) Core:2 "ADD result17 = 37 + 76"
(06/26/2025 08:33:21PM) Core:2 "ADD result18 = 76 + 57"
(06/26/2025 08:33:21PM) Core:2 "ADD result19 = 57 + 64"
(06/26/2025 08:33:22PM) Core:2 "DECLARE var20 = 74"
(06/26/2025 08:33:22PM) Core:2 "SUBTRACT result21 = 20 - 37"
(06/26/2025 08:33:22PM) Core:2 "DECLARE var22 = 50"
(06/26/2025 08:33:22PM) Core:2 "Hello from p39 [23]"
(06/26/2025 08:33:22PM) Core:2 "DECLARE var24 = 25"
(06/26/2025 08:33:22PM) Core:2 "Hello from p39 [25]"
(06/26/2025 08:33:22PM) Core:2 "ADD result26 = 20 + 37"
(06/26/2025 08:33:22PM) Core:2 "SUBTRACT result27 = 37 - 76"
(06/26/2025 08:33:22PM) Core:2 "DECLARE var28 = 73"
(06/26/2025 08:33:23PM) Core:2 "Loop iteration 1"
(06/26/2025 08:33:24PM) Core:2 "Loop iteration 2"
(06/26/2025 08:33:24PM) Core:2 "Loop iteration 3"
(06/26/2025 08:33:24PM) Core:2 "Loop iteration 1"
(06/26/2025 08:33:24PM) Core:2 "Loop iteration 2"
(06/26/2025 08:33:24PM) Core:2 "Loop iteration 3"
(06/26/2025 08:33:24PM) Core:2 "Loop iteration 1"
(06/26/2025 08:33:24PM) Core:2 "Loop iteration 2"
(06/26/2025 08:33:24PM) Core:2 "Loop iteration 3"
(06/26/2025 08:33:24PM) Core:2 "SUBTRACT result31 = 20 - 37"
(06/26/2025 08:33:24PM) Core:2 "ADD result32 = 37 + 76"
(06/26/2025 08:33:24PM) Core:2 "SUBTRACT result33 = 76 - 57"
(06/26/2025 08:33:24PM) Core:2 "ADD result34 = 57 + 64"
(06/26/2025 08:33:24PM) Core:2 "ADD result35 = 64 + 20"
(06/26/2025 08:33:24PM) Core:2 "Hello from p39 [36]"
(06/26/2025 08:33:24PM) Core:2 "DECLARE var37 = 57"
(06/26/2025 08:33:24PM) Core:2 "SUBTRACT result38 = 76 - 57"
(06/26/2025 08:33:24PM) Core:2 "Hello from p39 [39]"
(06/26/2025 08:33:25PM) Core:2 "DECLARE var40 = 51"
(06/26/2025 08:33:25PM) Core:2 "Loop iteration 1"
(06/26/2025 08:33:25PM) Core:2 "Loop iteration 2"
(06/26/2025 08:33:25PM) Core:2 "Loop iteration 3"
(06/26/2025 08:33:25PM) Core:2 "Loop iteration 1"
(06/26/2025 08:33:25PM) Core:2 "Loop iteration 2"
(06/26/2025 08:33:25PM) Core:2 "Loop iteration 3"
(06/26/2025 08:33:25PM) Core:2 "Loop iteration 1"
(06/26/2025 08:33:25PM) Core:2 "Loop iteration 2"
(06/26/2025 08:33:25PM) Core:2 "Loop iteration 3"
(06/26/2025 08:33:25PM) Core:2 "Loop iteration 1"
(06/26/2025 08:33:25PM) Core:2 "Loop iteration 2"
(06/26/2025 08:33:25PM) Core:2 "Loop iteration 3"
(06/26/2025 08:33:25PM) Core:2 "Loop iteration 1"
(06/26/2025 08:33:25PM) Core:2 "Loop iteration 2"
(06/26/2025 08:33:25PM) Core:2 "Loop iteration 3"
(06/26/2025 08:33:25PM) Core:2 "Loop iteration 1"
(06/26/2025 08:33:25PM) Core:2 "Loop iteration 2"
(06/26/2025 08:33:25PM) Core:2 "Loop iteration 3"
(06/26/2025 08:33:25PM) Core:2 "Loop iteration 1"
(06/26/2025 08:33:25PM) Core:2 "Loop iteration 2"
(06/26/2025 08:33:25PM) Core:2 "Loop iteration 3"
(06/26/2025 08:33:25PM) Core:2 "Loop iteration 1"
(06/26/2025 08:33:25PM) Core:2 "Loop iteration 2"
(06/26/2025 08:33:25PM) Core:2 "Loop iteration 3"
(06/26/2025 08:33:25PM) Core:2 "Loop iteration 1"
(06/26/2025 08:33:25PM) Core:2 "Loop iteration 2"
(06/26/2025 08:33:25PM) Core:2 "Loop iteration 3"
(06/26/2025 08:33:26PM) Core:2 "SUBTRACT result46 = 20 - 37"
(06/26/2025 08:33:26PM) Core:2 "Hello from p39 [47]"
(06/26/2025 08:33:27PM) Core:2 "Loop iteration 1"
(06/26/2025 08:33:27PM) Core:2 "Loop iteration 2"
(06/26/2025 08:33:27PM) Core:2 "Loop iteration 3"
(06/26/2025 08:33:27PM) Core:2 "Loop iteration 1"
(06/26/2025 08:33:27PM) Core:2 "Loop iteration 2"
(06/26/2025 08:33:27PM) Core:2 "Loop iteration 3"
(06/26/2025 08:33:27PM) Core:2 "Loop iteration 1"
(06/26/2025 08:33:27PM) Core:2 "Loop iteration 2"
(06/26/2025 08:33:27PM) Core:2 "Loop iteration 3"
(06/26/2025 08:33:27PM) Core:2 "Loop iteration 1"
(06/26/2025 08:33:27PM) Core:2 "Loop iteration 2"
(06/26/2025 08:33:27PM) Core:2 "Loop iteration 3"
(06/26/2025 08:33:27PM) Core:2 "Loop iteration 1"
(06/26/2025 08:33:27PM) Core:2 "Loop iteration 2"
(06/26/2025 08:33:27PM) Core:2 "Loop iteration 3"
(06/26/2025 08:33:27PM) Core:2 "Loop iteration 1"
(06/26/2025 08:33:27PM) Core:2 "Loop iteration 2"
(06/26/2025 08:33:27PM) Core:2 "Loop iteration 3"
(06/26/2025 08:33:27PM) Core:2 "Loop iteration 1"
(06/26/2025 08:33:27PM) Core:2 "Loop iteration 2"
(06/26/2025 08:33:27PM) Core:2 "Loop iteration 3"
(06/26/2025 08:33:27PM) Core:2 "Hello from p39 [51]"
(06/26/2025 08:33:27PM) Core:2 "Loop iteration 1"
(06/26/2025 08:33:27PM) Core:2 "Loop iteration 2"
(06/26/2025 08:33:27PM) Core:2 "Loop iteration 3"
(06/26/2025 08:33:27PM) Core:2 "Loop iteration 1"
(06/26/2025 08:33:27PM) Core:2 "Loop iteration 2"
(06/26/2025 08:33:27PM) Core:2 "Loop iteration 3"
(06/26/2025 08:33:27PM) Core:2 "Loop iteration 1"
(06/26/2025 08:33:27PM) Core:2 "Loop iteration 2"
(06/26/2025 08:33:27PM) Core:2 "Loop iteration 3"
(06/26/2025 08:33:27PM) Core:2 "Loop iteration 1"
(06/26/2025 08:33:27PM) Core:2 "Loop iteration 2"
(06/26/2025 08:33:27PM) Core:2 "Loop iteration 3"
(06/26/2025 08:33:29PM) Core:2 "SUBTRACT result55 = 64 - 20"
(06/26/2025 08:33:29PM) Core:2 "Hello from p39 [56]"
(06/26/2025 08:33:30PM) Core:2 "Hello from p39 [59]"
(06/26/2025 08:33:30PM) Core:2 "SUBTRACT result60 = 64 - 20"
(06/26/2025 08:33:30PM) Core:2 "SUBTRACT result61 = 20 - 37"
(06/26/2025 08:33:30PM) Core:2 "Hello from p39 [62]"
(06/26/2025 08:33:31PM) Core:2 "ADD result63 = 76 + 57"
(06/26/2025 08:33:31PM) Core:2 "ADD result64 = 57 + 64"
(06/26/2025 08:33:31PM) Core:2 "DECLARE var65 = 29"
(06/26/2025 08:33:31PM) Core:2 "ADD result66 = 20 + 37"
(06/26/2025 08:33:31PM) Core:2 "ADD result67 = 37 + 76"
(06/26/2025 08:33:31PM) Core:2 "SUBTRACT result68 = 76 - 57"
(06/26/2025 08:33:31PM) Core:2 "Loop iteration 1"
(06/26/2025 08:33:31PM) Core:2 "Loop iteration 2"
(06/26/2025 08:33:31PM) Core:2 "Loop iteration 3"
(06/26/2025 08:33:31PM) Core:2 "Loop iteration 1"
(06/26/2025 08:33:31PM) Core:2 "Loop iteration 2"
(06/26/2025 08:33:31PM) Core:2 "Loop iteration 3"
(06/26/2025 08:33:31PM) Core:2 "Loop iteration 1"
(06/26/2025 08:33:31PM) Core:2 "Loop iteration 2"
(06/26/2025 08:33:31PM) Core:2 "Loop iteration 3"
(06/26/2025 08:33:31PM) Core:2 "Loop iteration 1"
(06/26/2025 08:33:31PM) Core:2 "Loop iteration 2"
(06/26/2025 08:33:31PM) Core:2 "Loop iteration 3"
(06/26/2025 08:33:31PM) Core:2 "Loop iteration 1"
(06/26/2025 08:33:31PM) Core:2 "Loop iteration 2"
(06/26/2025 08:33:31PM) Core:2 "Loop iteration 3"
(06/26/2025 08:33:32PM) Core:2 "Loop iteration 1"
(06/26/2025 08:33:32PM) Core:2 "Loop iteration 2"
(06/26/2025 08:33:32PM) Core:2 "Loop iteration 3"
(06/26/2025 08:33:32PM) Core:2 "Loop iteration 1"
(06/26/2025 08:33:32PM) Core:2 "Loop iteration 2"
(06/26/2025 08:33:32PM) Core:2 "Loop iteration 3"
(06/26/2025 08:33:32PM) Core:2 "Loop iteration 1"
(06/26/2025 08:33:32PM) Core:2 "Loop iteration 2"
(06/26/2025 08:33:32PM) Core:2 "Loop iteration 3"
(06/26/2025 08:33:32PM) Core:2 "Loop iteration 1"
(06/26/2025 08:33:32PM) Core:2 "Loop iteration 2"
(06/26/2025 08:33:32PM) Core:2 "Loop iteration 3"
(06/26/2025 08:33:32PM) Core:2 "Loop iteration 1"
(06/26/2025 08:33:32PM) Core:2 "Loop iteration 2"
(06/26/2025 08:33:32PM) Core:2 "Loop iteration 3"
(06/26/2025 08:33:32PM) Core:2 "Hello from p39 [72]"
(06/26/2025 08:33:32PM) Core:2 "ADD result73 = 76 + 57"
(06/26/2025 08:33:33PM) Core:2 "SUBTRACT result75 = 64 - 20"
(06/26/2025 08:33:33PM) Core:2 "ADD result76 = 20 + 37"
(06/26/2025 08:33:35PM) Core:2 "SUBTRACT result81 = 20 - 37"
(06/26/2025 08:33:35PM) Core:2 "Hello from p39 [82]"
(06/26/2025 08:33:35PM) Core:2 "SUBTRACT result83 = 76 - 57"
(06/26/2025 08:33:35PM) Core:2 "ADD result84 = 57 + 64"
(06/26/2025 08:33:35PM) Core:2 "DECLARE var85 = 65"
(06/26/2025 08:33:36PM) Core:2 "Loop iteration 1"
(06/26/2025 08:33:36PM) Core:2 "Loop iteration 2"
(06/26/2025 08:33:36PM) Core:2 "Loop iteration 3"
(06/26/2025 08:33:36PM) Core:2 "Loop iteration 1"
(06/26/2025 08:33:36PM) Core:2 "Loop iteration 2"
(06/26/2025 08:33:36PM) Core:2 "Loop iteration 3"
(06/26/2025 08:33:36PM) Core:2 "Loop iteration 1"
(06/26/2025 08:33:36PM) Core:2 "Loop iteration 2"
(06/26/2025 08:33:36PM) Core:2 "Loop iteration 3"
(06/26/2025 08:33:36PM) Core:2 "Loop iteration 1"
(06/26/2025 08:33:36PM) Core:2 "Loop iteration 2"
(06/26/2025 08:33:36PM) Core:2 "Loop iteration 3"
(06/26/2025 09:12:45PM) Core:1 "DECLARE var0 = 96"
(06/26/2025 09:12:45PM) Core:1 "DECLARE var1 = 95"
(06/26/2025 09:12:45PM) Core:1 "DECLARE var2 = 85"
(06/26/2025 09:12:45PM) Core:1 "DECLARE var3 = 30"
(06/26/2025 09:12:46PM) Core:1 "DECLARE var4 = 100"
(06/26/2025 09:12:46PM) Core:1 "ADD result5 = 96 + 95"
(06/26/2025 09:12:46PM) Core:1 "ADD result6 = 95 + 85"
(06/26/2025 09:12:46PM) Core:1 "DECLARE var7 = 98"
(06/26/2025 09:12:46PM) Core:1 "ADD result8 = 30 + 100"
(06/26/2025 09:12:46PM) Core:1 "DECLARE var9 = 99"
(06/26/2025 09:12:46PM) Core:1 "Loop iteration 1"
(06/26/2025 09:12:46PM) Core:1 "Loop iteration 2"
(06/26/2025 09:12:46PM) Core:1 "Loop iteration 3"
(06/26/2025 09:12:46PM) Core:1 "Loop iteration 1"
(06/26/2025 09:12:46PM) Core:1 "Loop iteration 2"
(06/26/2025 09:12:46PM) Core:1 "Loop iteration 3"
(06/26/2025 09:12:46PM) Core:1 "Loop iteration 1"
(06/26/2025 09:12:46PM) Core:1 "Loop iteration 2"
(06/26/2025 09:12:46PM) Core:1 "Loop iteration 3"
(06/26/2025 09:12:46PM) Core:1 "Loop iteration 1"
(06/26/2025 09:12:46PM) Core:1 "Loop iteration 2"
(06/26/2025 09:12:46PM) Core:1 "Loop iteration 3"
(06/26/2025 09:12:46PM) Core:1 "Loop iteration 1"
(06/26/2025 09:12:46PM) Core:1 "Loop iteration 2"
(06/26/2025 09:12:46PM) Core:1 "Loop iteration 3"
(06/26/2025 09:12:47PM) Core:1 "Loop iteration 1"
(06/26/2025 09:12:47PM) Core:1 "Loop iteration 2"
(06/26/2025 09:12:47PM) Core:1 "Loop iteration 3"
(06/26/2025 09:12:47PM) Core:1 "Loop iteration 1"
(06/26/2025 09:12:47PM) Core:1 "Loop iteration 2"
(06/26/2025 09:12:47PM) Core:1 "Loop iteration 3"
(06/26/2025 09:12:47PM) Core:1 "Loop iteration 1"
(06/26/2025 09:12:47PM) Core:1 "Loop iteration 2"
(06/26/2025 09:12:47PM) Core:1 "Loop iteration 3"
(06/26/2025 09:12:47PM) Core:1 "Loop iteration 1"
(06/26/2025 09:12:47PM) Core:1 "Loop iteration 2"
(06/26/2025 09:12:47PM) Core:1 "Loop iteration 3"
(06/26/2025 09:12:47PM) Core:1 "Loop iteration 1"
(06/26/2025 09:12:47PM) Core:1 "Loop iteration 2"
(06/26/2025 09:12:47PM) Core:1 "Loop iteration 3"
(06/26/2025 09:12:47PM) Core:1 "Loop iteration 1"
(06/26/2025 09:12:47PM) Core:1 "Loop iteration 2"
(06/26/2025 09:12:47PM) Core:1 "Loop iteration 3"
(06/26/2025 09:12:47PM) Core:1 "DECLARE var14 = 24"
(06/26/2025 09:12:47PM) Core:1 "ADD result15 = 96 + 95"
(06/26/2025 09:12:47PM) Core:1 "SUBTRACT result16 = 95 - 85"
(06/26/2025 09:12:47PM) Core:1 "SUBTRACT result17 = 85 - 30"
(06/26/2025 09:12:47PM) Core:1 "DECLARE var18 = 52"
(06/26/2025 09:12:47PM) Core:1 "Loop iteration 1"
(06/26/2025 09:12:47PM) Core:1 "Loop iteration 2"
(06/26/2025 09:12:47PM) Core:1 "Loop iteration 3"
(06/26/2025 09:12:47PM) Core:1 "Loop iteration 1"
(06/26/2025 09:12:47PM) Core:1 "Loop iteration 2"
(06/26/2025 09:12:47PM) Core:1 "Loop iteration 3"
(06/26/2025 09:12:47PM) Core:1 "DECLARE var20 = 56"
(06/26/2025 09:12:48PM) Core:1 "ADD result21 = 95 + 85"
(06/26/2025 09:12:48PM) Core:1 "ADD result22 = 85 + 30"
(06/26/2025 09:12:48PM) Core:1 "Hello from p39 [23]"
(06/26/2025 09:12:48PM) Core:1 "Loop iteration 1"
(06/26/2025 09:12:48PM) Core:1 "Loop iteration 2"
(06/26/2025 09:12:48PM) Core:1 "Loop iteration 3"
(06/26/2025 09:12:48PM) Core:1 "Loop iteration 1"
(06/26/2025 09:12:48PM) Core:1 "Loop iteration 2"
(06/26/2025 09:12:48PM) Core:1 "Loop iteration 3"
(06/26/2025 09:12:48PM) Core:1 "Loop iteration 1"
(06/26/2025 09:12:48PM) Core:1 "Loop iteration 2"
(06/26/2025 09:12:48PM) Core:1 "Loop iteration 3"
(06/26/2025 09:12:48PM) Core:1 "Loop iteration 1"
(06/26/2025 09:12:48PM) Core:1 "Loop iteration 2"
(06/26/2025 09:12:48PM) Core:1 "Loop iteration 3"
(06/26/2025 09:12:48PM) Core:1 "Loop iteration 1"
(06/26/2025 09:12:48PM) Core:1 "Loop iteration 2"
(06/26/2025 09:12:48PM) Core:1 "Loop iteration 3"
(06/26/2025 09:12:48PM) Core:1 "Loop iteration 1"
(06/26/2025 09:12:48PM) Core:1 "Loop iteration 2"
(06/26/2025 09:12:48PM) Core:1 "Loop iteration 3"
(06/26/2025 09:12:48PM) Core:1 "Loop iteration 1"
(06/26/2025 09:12:48PM) Core:1 "Loop iteration 2"
(06/26/2025 09:12:48PM) Core:1 "Loop iteration 3"
(06/26/2025 09:12:48PM) Core:1 "SUBTRACT result26 = 95 - 85"
(06/26/2025 09:12:48PM) Core:1 "DECLARE var27 = 82"
(06/26/2025 09:12:48PM) Core:1 "Hello from p39 [28]"
(06/26/2025 09:12:48PM) Core:1 "ADD result29 = 100 + 96"
(06/26/2025 09:12:49PM) Core:1 "DECLARE var30 = 7"
(06/26/2025 09:12:50PM) Core:1 "ADD result32 = 85 + 30"
(06/26/2025 09:12:50PM) Core:1 "SUBTRACT result33 = 30 - 100"
(06/26/2025 09:12:50PM) Core:1 "Hello from p39 [34]"
(06/26/2025 09:12:51PM) Core:1 "Loop iteration 1"
(06/26/2025 09:12:51PM) Core:1 "Loop iteration 2"
(06/26/2025 09:12:51PM) Core:1 "Loop iteration 3"
(06/26/2025 09:12:51PM) Core:1 "Loop iteration 1"
(06/26/2025 09:12:51PM) Core:1 "Loop iteration 2"
(06/26/2025 09:12:51PM) Core:1 "Loop iteration 3"
(06/26/2025 09:12:51PM) Core:1 "SUBTRACT result37 = 85 - 30"
(06/26/2025 09:12:52PM) Core:1 "SUBTRACT result39 = 100 - 96"
(06/26/2025 09:12:52PM) Core:1 "SUBTRACT result40 = 96 - 95"
(06/26/2025 09:12:53PM) Core:1 "Loop iteration 1"
(06/26/2025 09:12:53PM) Core:1 "Loop iteration 2"
(06/26/2025 09:12:53PM) Core:1 "Loop iteration 3"
(06/26/2025 09:12:53PM) Core:1 "Loop iteration 1"
(06/26/2025 09:12:53PM) Core:1 "Loop iteration 2"
(06/26/2025 09:12:53PM) Core:1 "Loop iteration 3"
(06/26/2025 09:12:53PM) Core:1 "Loop iteration 1"
(06/26/2025 09:12:53PM) Core:1 "Loop iteration 2"
(06/26/2025 09:12:53PM) Core:1 "Loop iteration 3"
(06/26/2025 09:12:53PM) Core:1 "Loop iteration 1"
(06/26/2025 09:12:53PM) Core:1 "Loop iteration 2"
(06/26/2025 09:12:53PM) Core:1 "Loop iteration 3"
(06/26/2025 09:12:53PM) Core:1 "Loop iteration 1"
(06/26/2025 09:12:53PM) Core:1 "Loop iteration 2"
(06/26/2025 09:12:53PM) Core:1 "Loop iteration 3"
(06/26/2025 09:12:54PM) Core:1 "ADD result44 = 100 + 96"
(06/26/2025 09:12:54PM) Core:1 "Hello from p39 [45]"
(06/26/2025 09:12:54PM) Core:1 "DECLARE var46 = 13"
(06/26/2025 09:12:54PM) Core:1 "SUBTRACT result47 = 85 - 30"
(06/26/2025 09:12:54PM) Core:1 "ADD result48 = 30 + 100"
(06/26/2025 09:12:55PM) Core:1 "Loop iteration 1"
(06/26/2025 09:12:55PM) Core:1 "Loop iteration 2"
(06/26/2025 09:12:55PM) Core:1 "Loop iteration 3"
(06/26/2025 09:12:55PM) Core:1 "Loop iteration 1"
(06/26/2025 09:12:55PM) Core:1 "Loop iteration 2"
(06/26/2025 09:12:55PM) Core:1 "Loop iteration 3"
(06/26/2025 09:12:57PM) Core:1 "ADD result52 = 85 + 30"
(06/26/2025 09:12:57PM) Core:1 "ADD result53 = 30 + 100"
(06/26/2025 09:12:58PM) Core:1 "DECLARE var55 = 26"
(06/26/2025 09:12:58PM) Core:1 "Loop iteration 1"
(06/26/2025 09:12:58PM) Core:1 "Loop iteration 2"
(06/26/2025 09:12:58PM) Core:1 "Loop iteration 3"
(06/26/2025 09:12:58PM) Core:1 "Loop iteration 1"
(06/26/2025 09:12:58PM) Core:1 "Loop iteration 2"
(06/26/2025 09:12:58PM) Core:1 "Loop iteration 3"
(06/26/2025 09:12:58PM) Core:1 "ADD result57 = 85 + 30"
(06/26/2025 09:12:58PM) Core:1 "SUBTRACT result58 = 30 - 100"
(06/26/2025 09:13:00PM) Core:1 "Loop iteration 1"
(06/26/2025 09:13:00PM) Core:1 "Loop iteration 2"
(06/26/2025 09:13:00PM) Core:1 "Loop iteration 3"
(06/26/2025 09:13:00PM) Core:1 "Loop iteration 1"
(06/26/2025 09:13:00PM) Core:1 "Loop iteration 2"
(06/26/2025 09:13:00PM) Core:1 "Loop iteration 3"
(06/26/2025 09:13:00PM) Core:1 "ADD result62 = 85 + 30"
(06/26/2025 09:13:00PM) Core:1 "Loop iteration 1"
(06/26/2025 09:13:00PM) Core:1 "Loop iteration 2"
(06/26/2025 09:13:00PM) Core:1 "Loop iteration 3"
(06/26/2025 09:13:00PM) Core:1 "Loop iteration 1"
(06/26/2025 09:13:00PM) Core:1 "Loop iteration 2"
(06/26/2025 09:13:00PM) Core:1 "Loop iteration 3"
(06/26/2025 09:13:00PM) Core:1 "Loop iteration 1"
(06/26/2025 09:13:00PM) Core:1 "Loop iteration 2"
(06/26/2025 09:13:00PM) Core:1 "Loop iteration 3"
(06/26/2025 09:13:00PM) Core:1 "Loop iteration 1"
(06/26/2025 09:13:00PM) Core:1 "Loop iteration 2"
(06/26/2025 09:13:00PM) Core:1 "Loop iteration 3"
(06/26/2025 09:13:00PM) Core:1 "Hello from p39 [64]"
(06/26/2025 09:13:01PM) Core:1 "Loop iteration 1"
(06/26/2025 09:13:01PM) Core:1 "Loop iteration 2"
(06/26/2025 09:13:01PM) Core:1 "Loop iteration 3"
(06/26/2025 09:13:01PM) Core:1 "Loop iteration 1"
(06/26/2025 09:13:01PM) Core:1 "Loop iteration 2"
(06/26/2025 09:13:01PM) Core:1 "Loop iteration 3"
(06/26/2025 09:13:01PM) Core:1 "Loop iteration 1"
(06/26/2025 09:13:01PM) Core:1 "Loop iteration 2"
(06/26/2025 09:13:01PM) Core:1 "Loop iteration 3"
(06/26/2025 09:13:01PM) Core:1 "DECLARE var67 = 96"
(06/26/2025 09:13:01PM) Core:1 "Loop iteration 1"
(06/26/2025 09:13:01PM) Core:1 "Loop iteration 2"
(06/26/2025 09:13:01PM) Core:1 "Loop iteration 3"
(06/26/2025 09:13:01PM) Core:1 "Loop iteration 1"
(06/26/2025 09:13:01PM) Core:1 "Loop iteration 2"
(06/26/2025 09:13:01PM) Core:1 "Loop iteration 3"
(06/26/2025 09:13:01PM) Core:1 "Loop iteration 1"
(06/26/2025 09:13:01PM) Core:1 "Loop iteration 2"
(06/26/2025 09:13:01PM) Core:1 "Loop iteration 3"
(06/26/2025 09:13:01PM) Core:1 "Loop iteration 1"
(06/26/2025 09:13:01PM) Core:1 "Loop iteration 2"
(06/26/2025 09:13:01PM) Core:1 "Loop iteration 3"
(06/26/2025 09:13:02PM) Core:1 "ADD result70 = 96 + 95"
(06/26/2025 09:13:02PM) Core:1 "DECLARE var71 = 15"
(06/26/2025 09:13:02PM) Core:1 "Hello from p39 [73]"
(06/26/2025 09:13:03PM) Core:1 "Loop iteration 1"
(06/26/2025 09:13:03PM) Core:1 "Loop iteration 2"
(06/26/2025 09:13:03PM) Core:1 "Loop iteration 3"
(06/26/2025 09:13:03PM) Core:1 "Loop iteration 1"
(06/26/2025 09:13:03PM) Core:1 "Loop iteration 2"
(06/26/2025 09:13:03PM) Core:1 "Loop iteration 3"
(06/26/2025 09:13:03PM) Core:1 "Loop iteration 1"
(06/26/2025 09:13:03PM) Core:1 "Loop iteration 2"
(06/26/2025 09:13:03PM) Core:1 "Loop iteration 3"
(06/26/2025 09:13:03PM) Core:1 "DECLARE var76 = 56"
(06/26/2025 09:19:18PM) Core:3 "DECLARE var0 = 78"
(06/26/2025 09:19:18PM) Core:3 "DECLARE var1 = 31"
(06/26/2025 09:19:19PM) Core:3 "DECLARE var2 = 13"
(06/26/2025 09:19:19PM) Core:3 "DECLARE var3 = 33"
(06/26/2025 09:19:19PM) Core:3 "DECLARE var4 = 9"
(06/26/2025 09:19:19PM) Core:3 "SUBTRACT result5 = 78 - 31"
(06/26/2025 09:19:19PM) Core:3 "SUBTRACT result6 = 31 - 13"
(06/26/2025 09:19:19PM) Core:3 "ADD result7 = 13 + 33"
(06/26/2025 09:19:20PM) Core:3 "ADD result9 = 9 + 78"
(06/26/2025 09:19:20PM) Core:3 "Loop iteration 1"
(06/26/2025 09:19:20PM) Core:3 "Loop iteration 2"
(06/26/2025 09:19:20PM) Core:3 "Loop iteration 3"
(06/26/2025 09:19:20PM) Core:3 "Loop iteration 1"
(06/26/2025 09:19:20PM) Core:3 "Loop iteration 2"
(06/26/2025 09:19:20PM) Core:3 "Loop iteration 3"
(06/26/2025 09:19:20PM) Core:3 "Loop iteration 1"
(06/26/2025 09:19:20PM) Core:3 "Loop iteration 2"
(06/26/2025 09:19:20PM) Core:3 "Loop iteration 3"
(06/26/2025 09:19:20PM) Core:3 "Loop iteration 1"
(06/26/2025 09:19:20PM) Core:3 "Loop iteration 2"
(06/26/2025 09:19:20PM) Core:3 "Loop iteration 3"
(06/26/2025 09:19:20PM) Core:3 "Loop iteration 1"
(06/26/2025 09:19:20PM) Core:3 "Loop iteration 2"
(06/26/2025 09:19:20PM) Core:3 "Loop iteration 3"
(06/26/2025 09:19:20PM) Core:3 "DECLARE var11 = 91"
(06/26/2025 09:19:20PM) Core:3 "SUBTRACT result12 = 13 - 33"
(06/26/2025 09:19:21PM) Core:3 "Loop iteration 1"
(06/26/2025 09:19:21PM) Core:3 "Loop iteration 2"
(06/26/2025 09:19:21PM) Core:3 "Loop iteration 3"
(06/26/2025 09:19:21PM) Core:3 "Loop iteration 1"
(06/26/2025 09:19:21PM) Core:3 "Loop iteration 2"
(06/26/2025 09:19:21PM) Core:3 "Loop iteration 3"
(06/26/2025 09:19:21PM) Core:3 "Loop iteration 1"
(06/26/2025 09:19:21PM) Core:3 "Loop iteration 2"
(06/26/2025 09:19:21PM) Core:3 "Loop iteration 3"
(06/26/2025 09:19:21PM) Core:3 "Loop iteration 1"
(06/26/2025 09:19:21PM) Core:3 "Loop iteration 2"
(06/26/2025 09:19:21PM) Core:3 "Loop iteration 3"
(06/26/2025 09:19:21PM) Core:3 "Loop iteration 1"
(06/26/2025 09:19:21PM) Core:3 "Loop iteration 2"
(06/26/2025 09:19:21PM) Core:3 "Loop iteration 3"
(06/26/2025 09:19:21PM) Core:3 "DECLARE var15 = 54"
(06/26/2025 09:19:21PM) Core:3 "DECLARE var16 = 7"
(06/26/2025 09:19:22PM) Core:3 "Hello from p39 [17]"
(06/26/2025 09:19:22PM) Core:3 "Loop iteration 1"
(06/26/2025 09:19:22PM) Core:3 "Loop iteration 2"
(06/26/2025 09:19:22PM) Core:3 "Loop iteration 3"
(06/26/2025 09:19:22PM) Core:3 "Loop iteration 1"
(06/26/2025 09:19:22PM) Core:3 "Loop iteration 2"
(06/26/2025 09:19:22PM) Core:3 "Loop iteration 3"
(06/26/2025 09:19:22PM) Core:3 "DECLARE var19 = 14"
(06/26/2025 09:19:22PM) Core:3 "Hello from p39 [20]"
(06/26/2025 09:19:22PM) Core:3 "Loop iteration 1"
(06/26/2025 09:19:22PM) Core:3 "Loop iteration 2"
(06/26/2025 09:19:22PM) Core:3 "Loop iteration 3"
(06/26/2025 09:19:22PM) Core:3 "Loop iteration 1"
(06/26/2025 09:19:22PM) Core:3 "Loop iteration 2"
(06/26/2025 09:19:22PM) Core:3 "Loop iteration 3"
(06/26/2025 09:19:22PM) Core:3 "DECLARE var22 = 100"
(06/26/2025 09:19:23PM) Core:3 "ADD result24 = 9 + 78"
(06/26/2025 09:19:23PM) Core:3 "ADD result25 = 78 + 31"
(06/26/2025 09:19:23PM) Core:3 "DECLARE var26 = 16"
(06/26/2025 09:19:23PM) Core:3 "SUBTRACT result27 = 13 - 33"
(06/26/2025 09:19:23PM) Core:3 "SUBTRACT result28 = 33 - 9"
(06/26/2025 09:19:24PM) Core:3 "ADD result29 = 9 + 78"
(06/26/2025 09:19:25PM) Core:3 "Hello from p39 [31]"
(06/26/2025 09:19:26PM) Core:3 "ADD result33 = 33 + 9"
(06/26/2025 09:19:26PM) Core:3 "DECLARE var34 = 81"
(06/26/2025 09:19:27PM) Core:3 "ADD result37 = 13 + 33"
(06/26/2025 09:19:27PM) Core:3 "ADD result38 = 33 + 9"
(06/26/2025 09:19:27PM) Core:3 "SUBTRACT result39 = 9 - 78"
(06/26/2025 09:19:27PM) Core:3 "Loop iteration 1"
(06/26/2025 09:19:27PM) Core:3 "Loop iteration 2"
(06/26/2025 09:19:27PM) Core:3 "Loop iteration 3"
(06/26/2025 09:19:27PM) Core:3 "Loop iteration 1"
(06/26/2025 09:19:27PM) Core:3 "Loop iteration 2"
(06/26/2025 09:19:27PM) Core:3 "Loop iteration 3"
(06/26/2025 09:19:27PM) Core:3 "Loop iteration 1"
(06/26/2025 09:19:27PM) Core:3 "Loop iteration 2"
(06/26/2025 09:19:27PM) Core:3 "Loop iteration 3"
(06/26/2025 09:19:27PM) Core:3 "Loop iteration 1"
(06/26/2025 09:19:27PM) Core:3 "Loop iteration 2"
(06/26/2025 09:19:27PM) Core:3 "Loop iteration 3"
(06/26/2025 09:19:27PM) Core:3 "Loop iteration 1"
(06/26/2025 09:19:27PM) Core:3 "Loop iteration 2"
(06/26/2025 09:19:27PM) Core:3 "Loop iteration 3"
(06/26/2025 09:19:27PM) Core:3 "Loop iteration 1"
(06/26/2025 09:19:27PM) Core:3 "Loop iteration 2"
(06/26/2025 09:19:27PM) Core:3 "Loop iteration 3"
(06/26/2025 09:19:27PM) Core:3 "Loop iteration 1"
(06/26/2025 09:19:27PM) Core:3 "Loop iteration 2"
(06/26/2025 09:19:27PM) Core:3 "Loop iteration 3"
(06/26/2025 09:19:27PM) Core:3 "Loop iteration 1"
(06/26/2025 09:19:27PM) Core:3 "Loop iteration 2"
(06/26/2025 09:19:27PM) Core:3 "Loop iteration 3"
(06/26/2025 09:19:27PM) Core:3 "Hello from p39 [43]"
(06/26/2025 09:19:28PM) Core:3 "SUBTRACT result44 = 9 - 78"
(06/26/2025 09:19:28PM) Core:3 "Hello from p39 [45]"
(06/26/2025 09:19:28PM) Core:3 "SUBTRACT result46 = 31 - 13"
(06/26/2025 09:19:28PM) Core:3 "DECLARE var48 = 98"
(06/26/2025 09:19:28PM) Core:3 "SUBTRACT result49 = 9 - 78"
(06/26/2025 09:19:28PM) Core:3 "Loop iteration 1"
(06/26/2025 09:19:28PM) Core:3 "Loop iteration 2"
(06/26/2025 09:19:28PM) Core:3 "Loop iteration 3"
(06/26/2025 09:19:28PM) Core:3 "Loop iteration 1"
(06/26/2025 09:19:28PM) Core:3 "Loop iteration 2"
(06/26/2025 09:19:28PM) Core:3 "Loop iteration 3"
(06/26/2025 09:19:28PM) Core:3 "Loop iteration 1"
(06/26/2025 09:19:28PM) Core:3 "Loop iteration 2"
(06/26/2025 09:19:28PM) Core:3 "Loop iteration 3"
(06/26/2025 09:19:28PM) Core:3 "Loop iteration 1"
(06/26/2025 09:19:28PM) Core:3 "Loop iteration 2"
(06/26/2025 09:19:28PM) Core:3 "Loop iteration 3"
(06/26/2025 09:19:29PM) Core:3 "SUBTRACT result51 = 31 - 13"
(06/26/2025 09:19:29PM) Core:3 "DECLARE var52 = 93"
(06/26/2025 09:19:29PM) Core:3 "SUBTRACT result53 = 33 - 9"
(06/26/2025 09:19:29PM) Core:3 "Loop iteration 1"
(06/26/2025 09:19:29PM) Core:3 "Loop iteration 2"
(06/26/2025 09:19:29PM) Core:3 "Loop iteration 3"
(06/26/2025 09:19:29PM) Core:3 "Loop iteration 1"
(06/26/2025 09:19:29PM) Core:3 "Loop iteration 2"
(06/26/2025 09:19:29PM) Core:3 "Loop iteration 3"
(06/26/2025 09:19:29PM) Core:3 "ADD result55 = 78 + 31"
(06/26/2025 09:19:29PM) Core:3 "DECLARE var56 = 7"
(06/26/2025 09:19:29PM) Core:3 "ADD result57 = 13 + 33"
(06/26/2025 09:19:29PM) Core:3 "Loop iteration 1"
(06/26/2025 09:19:29PM) Core:3 "Loop iteration 2"
(06/26/2025 09:19:29PM) Core:3 "Loop iteration 3"
(06/26/2025 09:19:29PM) Core:3 "Loop iteration 1"
(06/26/2025 09:19:29PM) Core:3 "Loop iteration 2"
(06/26/2025 09:19:29PM) Core:3 "Loop iteration 3"
(06/26/2025 09:19:29PM) Core:3 "Loop iteration 1"
(06/26/2025 09:19:29PM) Core:3 "Loop iteration 2"
(06/26/2025 09:19:29PM) Core:3 "Loop iteration 3"
(06/26/2025 09:19:29PM) Core:3 "Loop iteration 1"
(06/26/2025 09:19:29PM) Core:3 "Loop iteration 2"
(06/26/2025 09:19:29PM) Core:3 "Loop iteration 3"
(06/26/2025 09:19:29PM) Core:3 "Loop iteration 1"
(06/26/2025 09:19:29PM) Core:3 "Loop iteration 2"
(06/26/2025 09:19:29PM) Core:3 "Loop iteration 3"
(06/26/2025 09:19:29PM) Core:3 "SUBTRACT result59 = 9 - 78"
(06/26/2025 11:25:35PM) Core:3 "DECLARE var0 = 27"
(06/26/2025 11:25:35PM) Core:3 "DECLARE var1 = 37"
(06/26/2025 11:25:35PM) Core:3 "DECLARE var2 = 87"
(06/27/2025 12:16:19AM) Core:2 "DECLARE var0 = 17"
(06/27/2025 12:16:19AM) Core:2 "DECLARE var1 = 56"
(06/27/2025 12:16:19AM) Core:2 "DECLARE var2 = 15"
(06/27/2025 12:16:26AM) Core:2 "DECLARE var3 = 50"
(06/27/2025 12:16:26AM) Core:2 "DECLARE var4 = 73"
(06/27/2025 12:16:26AM) Core:2 "ADD result5 = 17 + 56"
(06/27/2025 12:16:33AM) Core:1 "SUBTRACT result6 = 56 - 15"
(06/27/2025 12:16:34AM) Core:1 "DECLARE var7 = 73"
(06/27/2025 12:16:34AM) Core:1 "ADD result8 = 50 + 73"
(06/27/2025 12:16:41AM) Core:3 "DECLARE var9 = 84"
(06/27/2025 12:16:41AM) Core:3 "ADD result10 = 17 + 56"
(06/27/2025 12:16:41AM) Core:3 "DECLARE var11 = 20"
(06/27/2025 12:16:51AM) Core:3 "DECLARE var12 = 73"
(06/27/2025 12:16:51AM) Core:3 "Hello from p39 [13]"
(06/27/2025 12:16:51AM) Core:3 "Loop iteration 1"
(06/27/2025 12:16:51AM) Core:3 "Loop iteration 2"
(06/27/2025 12:16:51AM) Core:3 "Loop iteration 3"
(06/27/2025 12:16:51AM) Core:3 "Loop iteration 1"
(06/27/2025 12:16:51AM) Core:3 "Loop iteration 2"
(06/27/2025 12:16:51AM) Core:3 "Loop iteration 3"
(06/27/2025 12:16:51AM) Core:3 "Loop iteration 1"
(06/27/2025 12:16:51AM) Core:3 "Loop iteration 2"
(06/27/2025 12:16:51AM) Core:3 "Loop iteration 3"
(06/27/2025 12:16:51AM) Core:3 "Loop iteration 1"
(06/27/2025 12:16:51AM) Core:3 "Loop iteration 2"
(06/27/2025 12:16:51AM) Core:3 "Loop iteration 3"
(06/27/2025 12:17:02AM) Core:1 "Hello from p39 [15]"
(06/27/2025 12:17:02AM) Core:1 "Hello from p39 [16]"
(06/27/2025 12:17:02AM) Core:1 "DECLARE var17 = 80"
(06/27/2025 12:17:14AM) Core:0 "DECLARE var18 = 76"
(06/27/2025 12:17:14AM) Core:0 "DECLARE var19 = 19"
(06/27/2025 12:17:14AM) Core:0 "SUBTRACT result20 = 17 - 56"
(06/27/2025 12:17:28AM) Core:1 "Hello from p39 [21]"
(06/27/2025 12:17:28AM) Core:1 "ADD result22 = 15 + 50"
(06/27/2025 12:17:28AM) Core:1 "Hello from p39 [23]"
(06/27/2025 12:17:43AM) Core:2 "DECLARE var24 = 24"
(06/27/2025 12:17:44AM) Core:2 "SUBTRACT result25 = 17 - 56"
(06/27/2025 12:17:44AM) Core:2 "ADD result26 = 56 + 15"
(06/27/2025 12:18:02AM) Core:1 "ADD result27 = 15 + 50"
(06/27/2025 12:18:02AM) Core:1 "ADD result28 = 50 + 73"
(06/27/2025 12:18:03AM) Core:1 "Hello from p39 [29]"
(06/27/2025 12:18:23AM) Core:0 "Hello from p39 [30]"
(06/27/2025 12:18:24AM) Core:0 "ADD result32 = 15 + 50"
(06/27/2025 12:18:48AM) Core:0 "SUBTRACT result33 = 50 - 73"
(06/27/2025 12:18:48AM) Core:0 "ADD result34 = 73 + 17"
(06/27/2025 12:19:19AM) Core:1 "Hello from p39 [37]"
(06/27/2025 12:19:19AM) Core:1 "ADD result38 = 50 + 73"
(06/27/2025 12:19:52AM) Core:0 "ADD result39 = 73 + 17"
(06/27/2025 12:19:52AM) Core:0 "DECLARE var40 = 13"
(06/27/2025 12:20:28AM) Core:2 "Loop iteration 1"
(06/27/2025 12:20:28AM) Core:2 "Loop iteration 2"
(06/27/2025 12:20:28AM) Core:2 "Loop iteration 3"
(06/27/2025 12:20:28AM) Core:2 "Loop iteration 1"
(06/27/2025 12:20:28AM) Core:2 "Loop iteration 2"
(06/27/2025 12:20:28AM) Core:2 "Loop iteration 3"
(06/27/2025 12:20:28AM) Core:2 "Loop iteration 1"
(06/27/2025 12:20:28AM) Core:2 "Loop iteration 2"
(06/27/2025 12:20:28AM) Core:2 "Loop iteration 3"
(06/27/2025 12:21:16AM) Core:2 "DECLARE var45 = 17"
(06/27/2025 12:21:16AM) Core:2 "SUBTRACT result46 = 56 - 15"
(06/27/2025 12:22:06AM) Core:0 "Loop iteration 1"
(06/27/2025 12:22:06AM) Core:0 "Loop iteration 2"
(06/27/2025 12:22:06AM) Core:0 "Loop iteration 3"
(06/27/2025 12:22:06AM) Core:0 "Loop iteration 1"
(06/27/2025 12:22:06AM) Core:0 "Loop iteration 2"
(06/27/2025 12:22:06AM) Core:0 "Loop iteration 3"
(06/27/2025 12:22:06AM) Core:0 "Loop iteration 1"
(06/27/2025 12:22:06AM) Core:0 "Loop iteration 2"
(06/27/2025 12:22:06AM) Core:0 "Loop iteration 3"
(06/27/2025 12:22:06AM) Core:0 "Loop iteration 1"
(06/27/2025 12:22:06AM) Core:0 "Loop iteration 2"
(06/27/2025 12:22:06AM) Core:0 "Loop iteration 3"
(06/27/2025 12:22:06AM) Core:0 "Loop iteration 1"
(06/27/2025 12:22:06AM) Core:0 "Loop iteration 2"
(06/27/2025 12:22:06AM) Core:0 "Loop iteration 3"
(06/27/2025 12:22:06AM) Core:0 "DECLARE var50 = 72"
(06/27/2025 12:23:04AM) Core:1 "SUBTRACT result52 = 15 - 50"
(06/27/2025 12:24:13AM) Core:0 "DECLARE var0 = 64"
(06/27/2025 12:24:13AM) Core:0 "DECLARE var1 = 45"
(06/27/2025 12:24:13AM) Core:0 "DECLARE var2 = 86"
(06/27/2025 12:24:13AM) Core:0 "DECLARE var3 = 61"
(06/27/2025 12:24:20AM) Core:0 "DECLARE var4 = 23"
(06/27/2025 12:24:22AM) Core:0 "Loop iteration 1"
(06/27/2025 12:24:22AM) Core:0 "Loop iteration 2"
(06/27/2025 12:24:22AM) Core:0 "Loop iteration 3"
(06/27/2025 12:24:22AM) Core:0 "Loop iteration 1"
(06/27/2025 12:24:22AM) Core:0 "Loop iteration 2"
(06/27/2025 12:24:22AM) Core:0 "Loop iteration 3"
(06/27/2025 12:24:22AM) Core:0 "Loop iteration 1"
(06/27/2025 12:24:22AM) Core:0 "Loop iteration 2"
(06/27/2025 12:24:22AM) Core:0 "Loop iteration 3"
(06/27/2025 12:24:33AM) Core:1 "Hello from p39 [8]"
(06/27/2025 12:24:33AM) Core:1 "SUBTRACT result9 = 23 - 64"
(06/27/2025 12:24:33AM) Core:1 "Loop iteration 1"
(06/27/2025 12:24:33AM) Core:1 "Loop iteration 2"
(06/27/2025 12:24:33AM) Core:1 "Loop iteration 3"
(06/27/2025 12:24:33AM) Core:1 "Loop iteration 1"
(06/27/2025 12:24:33AM) Core:1 "Loop iteration 2"
(06/27/2025 12:24:33AM) Core:1 "Loop iteration 3"
(06/27/2025 12:24:33AM) Core:1 "DECLARE var11 = 91"
(06/27/2025 12:24:47AM) Core:3 "SUBTRACT result12 = 86 - 61"
(06/27/2025 12:24:47AM) Core:3 "DECLARE var13 = 82"
(06/27/2025 12:24:47AM) Core:3 "ADD result14 = 23 + 64"
(06/27/2025 12:24:47AM) Core:3 "ADD result15 = 64 + 45"
(06/27/2025 12:25:00AM) Core:1 "SUBTRACT result16 = 45 - 86"
(06/27/2025 12:25:00AM) Core:1 "Loop iteration 1"
(06/27/2025 12:25:00AM) Core:1 "Loop iteration 2"
(06/27/2025 12:25:00AM) Core:1 "Loop iteration 3"
(06/27/2025 12:25:00AM) Core:1 "Loop iteration 1"
(06/27/2025 12:25:00AM) Core:1 "Loop iteration 2"
(06/27/2025 12:25:00AM) Core:1 "Loop iteration 3"
(06/27/2025 12:25:00AM) Core:1 "SUBTRACT result18 = 61 - 23"
(06/27/2025 12:25:00AM) Core:1 "DECLARE var19 = 17"
(06/27/2025 12:25:18AM) Core:2 "SUBTRACT result20 = 64 - 45"
(06/27/2025 12:25:18AM) Core:2 "Hello from p39 [21]"
(06/27/2025 12:25:18AM) Core:2 "ADD result22 = 86 + 61"
(06/27/2025 12:25:18AM) Core:2 "Loop iteration 1"
(06/27/2025 12:25:18AM) Core:2 "Loop iteration 2"
(06/27/2025 12:25:18AM) Core:2 "Loop iteration 3"
(06/27/2025 12:25:18AM) Core:2 "Loop iteration 1"
(06/27/2025 12:25:18AM) Core:2 "Loop iteration 2"
(06/27/2025 12:25:18AM) Core:2 "Loop iteration 3"
(06/27/2025 12:25:18AM) Core:2 "Loop iteration 1"
(06/27/2025 12:25:18AM) Core:2 "Loop iteration 2"
(06/27/2025 12:25:18AM) Core:2 "Loop iteration 3"
(06/27/2025 12:25:18AM) Core:2 "Loop iteration 1"
(06/27/2025 12:25:18AM) Core:2 "Loop iteration 2"
(06/27/2025 12:25:18AM) Core:2 "Loop iteration 3"
(06/27/2025 12:28:08AM) Core:3 "DECLARE var0 = 51"
(06/27/2025 12:28:09AM) Core:3 "DECLARE var1 = 25"
(06/27/2025 12:28:09AM) Core:3 "DECLARE var2 = 37"
(06/27/2025 12:28:18AM) Core:1 "DECLARE var3 = 46"
(06/27/2025 12:28:18AM) Core:1 "DECLARE var4 = 56"
(06/27/2025 12:28:18AM) Core:1 "ADD result5 = 51 + 25"
(06/27/2025 12:28:25AM) Core:3 "Loop iteration 1"
(06/27/2025 12:28:25AM) Core:3 "Loop iteration 2"
(06/27/2025 12:28:25AM) Core:3 "Loop iteration 3"
(06/27/2025 12:28:25AM) Core:3 "Loop iteration 1"
(06/27/2025 12:28:25AM) Core:3 "Loop iteration 2"
(06/27/2025 12:28:25AM) Core:3 "Loop iteration 3"
(06/27/2025 12:28:25AM) Core:3 "Loop iteration 1"
(06/27/2025 12:28:25AM) Core:3 "Loop iteration 2"
(06/27/2025 12:28:25AM) Core:3 "Loop iteration 3"
(06/27/2025 12:28:25AM) Core:3 "Loop iteration 1"
(06/27/2025 12:28:25AM) Core:3 "Loop iteration 2"
(06/27/2025 12:28:25AM) Core:3 "Loop iteration 3"
(06/27/2025 12:28:25AM) Core:3 "Loop iteration 1"
(06/27/2025 12:28:25AM) Core:3 "Loop iteration 2"
(06/27/2025 12:28:25AM) Core:3 "Loop iteration 3"
(06/27/2025 12:28:25AM) Core:3 "Loop iteration 1"
(06/27/2025 12:28:25AM) Core:3 "Loop iteration 2"
(06/27/2025 12:28:25AM) Core:3 "Loop iteration 3"
(06/27/2025 12:28:25AM) Core:3 "ADD result8 = 46 + 56"
(06/27/2025 12:28:35AM) Core:1 "DECLARE var11 = 1"
(06/27/2025 12:28:45AM) Core:3 "ADD result12 = 37 + 46"
(06/27/2025 12:28:45AM) Core:3 "SUBTRACT result13 = 46 - 56"
(06/27/2025 12:28:46AM) Core:3 "SUBTRACT result14 = 56 - 51"
(06/27/2025 12:28:57AM) Core:3 "ADD result15 = 51 + 25"
(06/27/2025 12:28:58AM) Core:3 "DECLARE var17 = 79"
(06/27/2025 12:32:27AM) Core:2 "DECLARE var0 = 4"
(06/27/2025 12:32:27AM) Core:2 "DECLARE var1 = 91"
(06/27/2025 12:32:27AM) Core:2 "DECLARE var2 = 12"
(06/27/2025 12:32:34AM) Core:1 "DECLARE var3 = 36"
(06/27/2025 12:32:34AM) Core:1 "DECLARE var4 = 32"
(06/27/2025 12:32:34AM) Core:1 "DECLARE var5 = 25"
(06/27/2025 12:34:41AM) Core:0 "DECLARE var0 = 55"
(06/27/2025 12:34:41AM) Core:0 "DECLARE var1 = 100"
(06/27/2025 12:34:41AM) Core:0 "DECLARE var2 = 86"
(06/27/2025 12:34:47AM) Core:2 "DECLARE var3 = 92"
(06/27/2025 12:34:47AM) Core:2 "DECLARE var4 = 9"
(06/27/2025 12:34:47AM) Core:2 "Hello from p39 [5]"
(06/27/2025 12:34:54AM) Core:3 "ADD result6 = 100 + 86"
(06/27/2025 12:34:55AM) Core:3 "SUBTRACT result8 = 92 - 9"
(06/27/2025 04:18:14PM) Core:1 "DECLARE var0 = 46"
(06/27/2025 04:18:14PM) Core:1 "DECLARE var1 = 33"
(06/27/2025 04:18:15PM) Core:1 "DECLARE var2 = 86"
(06/27/2025 04:18:21PM) Core:1 "DECLARE var3 = 6"
(06/27/2025 04:18:21PM) Core:1 "DECLARE var4 = 26"
(06/27/2025 04:18:21PM) Core:1 "Loop iteration 1"
(06/27/2025 04:18:21PM) Core:1 "Loop iteration 2"
(06/27/2025 04:18:21PM) Core:1 "Loop iteration 3"
(06/27/2025 04:18:21PM) Core:1 "Loop iteration 1"
(06/27/2025 04:18:21PM) Core:1 "Loop iteration 2"
(06/27/2025 04:18:21PM) Core:1 "Loop iteration 3"
(06/27/2025 04:18:29PM) Core:0 "DECLARE var7 = 10"
(06/27/2025 04:18:29PM) Core:0 "DECLARE var8 = 66"
(06/27/2025 04:18:38PM) Core:2 "Loop iteration 1"
(06/27/2025 04:18:38PM) Core:2 "Loop iteration 2"
(06/27/2025 04:18:38PM) Core:2 "Loop iteration 3"
(06/27/2025 04:18:38PM) Core:2 "Loop iteration 1"
(06/27/2025 04:18:38PM) Core:2 "Loop iteration 2"
(06/27/2025 04:18:38PM) Core:2 "Loop iteration 3"
(06/27/2025 04:18:39PM) Core:2 "SUBTRACT result10 = 46 - 33"
(06/27/2025 04:18:39PM) Core:2 "Hello from p39 [11]"
(06/27/2025 04:18:48PM) Core:2 "Loop iteration 1"
(06/27/2025 04:18:48PM) Core:2 "Loop iteration 2"
(06/27/2025 04:18:48PM) Core:2 "Loop iteration 3"
(06/27/2025 04:18:48PM) Core:2 "Loop iteration 1"
(06/27/2025 04:18:48PM) Core:2 "Loop iteration 2"
(06/27/2025 04:18:48PM) Core:2 "Loop iteration 3"
(06/27/2025 04:18:48PM) Core:2 "Loop iteration 1"
(06/27/2025 04:18:48PM) Core:2 "Loop iteration 2"
(06/27/2025 04:18:48PM) Core:2 "Loop iteration 3"
(06/27/2025 04:18:48PM) Core:2 "Loop iteration 1"
(06/27/2025 04:18:48PM) Core:2 "Loop iteration 2"
(06/27/2025 04:18:48PM) Core:2 "Loop iteration 3"
(06/27/2025 04:18:48PM) Core:2 "Loop iteration 1"
(06/27/2025 04:18:48PM) Core:2 "Loop iteration 2"
(06/27/2025 04:18:48PM) Core:2 "Loop iteration 3"
(06/27/2025 04:18:48PM) Core:2 "Loop iteration 1"
(06/27/2025 04:18:48PM) Core:2 "Loop iteration 2"
(06/27/2025 04:18:48PM) Core:2 "Loop iteration 3"
(06/27/2025 04:18:48PM) Core:2 "Loop iteration 1"
(06/27/2025 04:18:48PM) Core:2 "Loop iteration 2"
(06/27/2025 04:18:48PM) Core:2 "Loop iteration 3"
(06/27/2025 04:18:48PM) Core:2 "Loop iteration 1"
(06/27/2025 04:18:48PM) Core:2 "Loop iteration 2"
(06/27/2025 04:18:48PM) Core:2 "Loop iteration 3"
(06/27/2025 04:19:00PM) Core:2 "DECLARE var15 = 24"
(06/27/2025 04:19:00PM) Core:2 "Hello from p39 [16]"
(06/27/2025 04:19:00PM) Core:2 "SUBTRACT result17 = 86 - 6"
(06/27/2025 04:19:14PM) Core:3 "ADD result18 = 6 + 26"
(06/27/2025 04:19:14PM) Core:3 "DECLARE var19 = 77"
(06/27/2025 04:19:31PM) Core:2 "ADD result22 = 86 + 6"
(06/27/2025 04:19:31PM) Core:2 "Hello from p39 [23]"
(06/27/2025 04:19:50PM) Core:0 "ADD result25 = 46 + 33"
(06/27/2025 04:20:13PM) Core:0 "Loop iteration 1"
(06/27/2025 04:20:13PM) Core:0 "Loop iteration 2"
(06/27/2025 04:20:13PM) Core:0 "Loop iteration 3"
(06/27/2025 04:20:13PM) Core:0 "Loop iteration 1"
(06/27/2025 04:20:13PM) Core:0 "Loop iteration 2"
(06/27/2025 04:20:13PM) Core:0 "Loop iteration 3"
(06/27/2025 04:20:13PM) Core:0 "Loop iteration 1"
(06/27/2025 04:20:13PM) Core:0 "Loop iteration 2"
(06/27/2025 04:20:13PM) Core:0 "Loop iteration 3"
(06/27/2025 04:20:13PM) Core:0 "Loop iteration 1"
(06/27/2025 04:20:13PM) Core:0 "Loop iteration 2"
(06/27/2025 04:20:13PM) Core:0 "Loop iteration 3"
(06/27/2025 04:20:13PM) Core:0 "Hello from p39 [28]"
(06/27/2025 04:20:13PM) Core:0 "ADD result29 = 26 + 46"
(06/27/2025 04:20:35PM) Core:2 "Loop iteration 1"
(06/27/2025 04:20:35PM) Core:2 "Loop iteration 2"
(06/27/2025 04:20:35PM) Core:2 "Loop iteration 3"
(06/27/2025 04:20:35PM) Core:2 "Loop iteration 1"
(06/27/2025 04:20:35PM) Core:2 "Loop iteration 2"
(06/27/2025 04:20:35PM) Core:2 "Loop iteration 3"
(06/27/2025 04:20:35PM) Core:2 "Loop iteration 1"
(06/27/2025 04:20:35PM) Core:2 "Loop iteration 2"
(06/27/2025 04:20:35PM) Core:2 "Loop iteration 3"
(06/27/2025 04:20:35PM) Core:2 "ADD result31 = 33 + 86"
(06/27/2025 04:20:35PM) Core:2 "ADD result32 = 86 + 6"
(06/27/2025 04:21:03PM) Core:2 "Hello from p39 [33]"
(06/27/2025 04:21:03PM) Core:2 "Loop iteration 1"
(06/27/2025 04:21:03PM) Core:2 "Loop iteration 2"
(06/27/2025 04:21:03PM) Core:2 "Loop iteration 3"
(06/27/2025 04:21:03PM) Core:2 "Loop iteration 1"
(06/27/2025 04:21:03PM) Core:2 "Loop iteration 2"
(06/27/2025 04:21:03PM) Core:2 "Loop iteration 3"
(06/27/2025 04:21:03PM) Core:2 "Loop iteration 1"
(06/27/2025 04:21:03PM) Core:2 "Loop iteration 2"
(06/27/2025 04:21:03PM) Core:2 "Loop iteration 3"
(06/27/2025 04:21:03PM) Core:2 "Hello from p39 [35]"
(06/27/2025 04:21:34PM) Core:3 "ADD result36 = 33 + 86"
(06/27/2025 04:21:35PM) Core:3 "ADD result37 = 86 + 6"
(06/27/2025 04:21:35PM) Core:3 "Loop iteration 1"
(06/27/2025 04:21:35PM) Core:3 "Loop iteration 2"
(06/27/2025 04:21:35PM) Core:3 "Loop iteration 3"
(06/27/2025 04:21:35PM) Core:3 "Loop iteration 1"
(06/27/2025 04:21:35PM) Core:3 "Loop iteration 2"
(06/27/2025 04:21:35PM) Core:3 "Loop iteration 3"
(06/27/2025 04:21:35PM) Core:3 "Loop iteration 1"
(06/27/2025 04:21:35PM) Core:3 "Loop iteration 2"
(06/27/2025 04:21:35PM) Core:3 "Loop iteration 3"
(06/27/2025 04:21:35PM) Core:3 "Loop iteration 1"
(06/27/2025 04:21:35PM) Core:3 "Loop iteration 2"
(06/27/2025 04:21:35PM) Core:3 "Loop iteration 3"
(06/27/2025 04:21:35PM) Core:3 "Loop iteration 1"
(06/27/2025 04:21:35PM) Core:3 "Loop iteration 2"
(06/27/2025 04:21:35PM) Core:3 "Loop iteration 3"
(06/27/2025 04:35:31PM) Core:2 "DECLARE var0 = 68"
(06/27/2025 04:35:31PM) Core:2 "DECLARE var1 = 3"
(06/27/2025 04:35:31PM) Core:2 "DECLARE var2 = 80"
(06/27/2025 04:35:39PM) Core:3 "DECLARE var3 = 70"
(06/27/2025 04:35:39PM) Core:3 "DECLARE var4 = 25"
(06/27/2025 04:35:46PM) Core:1 "DECLARE var6 = 11"
(06/27/2025 04:35:46PM) Core:1 "ADD result7 = 80 + 70"
(06/27/2025 04:35:55PM) Core:0 "Loop iteration 1"
(06/27/2025 04:35:55PM) Core:0 "Loop iteration 2"
(06/27/2025 04:35:55PM) Core:0 "Loop iteration 3"
(06/27/2025 04:35:55PM) Core:0 "Loop iteration 1"
(06/27/2025 04:35:55PM) Core:0 "Loop iteration 2"
(06/27/2025 04:35:55PM) Core:0 "Loop iteration 3"
(06/27/2025 04:35:55PM) Core:0 "Loop iteration 1"
(06/27/2025 04:35:55PM) Core:0 "Loop iteration 2"
(06/27/2025 04:35:55PM) Core:0 "Loop iteration 3"
(06/27/2025 04:35:55PM) Core:0 "Loop iteration 1"
(06/27/2025 04:35:55PM) Core:0 "Loop iteration 2"
(06/27/2025 04:35:55PM) Core:0 "Loop iteration 3"
(06/27/2025 04:36:07PM) Core:3 "SUBTRACT result13 = 70 - 25"
(06/27/2025 04:36:08PM) Core:3 "Loop iteration 1"
(06/27/2025 04:36:08PM) Core:3 "Loop iteration 2"
(06/27/2025 04:36:08PM) Core:3 "Loop iteration 3"
(06/27/2025 04:36:08PM) Core:3 "Loop iteration 1"
(06/27/2025 04:36:08PM) Core:3 "Loop iteration 2"
(06/27/2025 04:36:08PM) Core:3 "Loop iteration 3"
(06/27/2025 04:36:20PM) Core:2 "ADD result15 = 68 + 3"
(06/27/2025 04:36:20PM) Core:2 "Hello from p39 [16]"
(06/27/2025 04:36:20PM) Core:2 "SUBTRACT result17 = 80 - 70"
(06/27/2025 04:36:34PM) Core:1 "SUBTRACT result18 = 70 - 25"
(06/27/2025 04:36:34PM) Core:1 "DECLARE var19 = 78"
(06/27/2025 04:36:51PM) Core:3 "DECLARE var21 = 98"
(06/27/2025 04:36:51PM) Core:3 "Hello from p39 [23]"
(06/27/2025 04:37:10PM) Core:3 "SUBTRACT result24 = 25 - 68"
(06/27/2025 04:37:10PM) Core:3 "ADD result25 = 68 + 3"
(06/27/2025 04:37:10PM) Core:3 "Hello from p39 [26]"
(06/27/2025 04:37:33PM) Core:0 "Loop iteration 1"
(06/27/2025 04:37:33PM) Core:0 "Loop iteration 2"
(06/27/2025 04:37:33PM) Core:0 "Loop iteration 3"
(06/27/2025 04:37:33PM) Core:0 "Loop iteration 1"
(06/27/2025 04:37:33PM) Core:0 "Loop iteration 2"
(06/27/2025 04:37:33PM) Core:0 "Loop iteration 3"
(06/27/2025 04:37:33PM) Core:0 "Loop iteration 1"
(06/27/2025 04:37:33PM) Core:0 "Loop iteration 2"
(06/27/2025 04:37:33PM) Core:0 "Loop iteration 3"
(06/27/2025 04:37:33PM) Core:0 "Hello from p39 [28]"
(06/27/2025 04:37:33PM) Core:0 "Loop iteration 1"
(06/27/2025 04:37:33PM) Core:0 "Loop iteration 2"
(06/27/2025 04:37:33PM) Core:0 "Loop iteration 3"
(06/27/2025 04:37:33PM) Core:0 "Loop iteration 1"
(06/27/2025 04:37:33PM) Core:0 "Loop iteration 2"
(06/27/2025 04:37:33PM) Core:0 "Loop iteration 3"
(06/27/2025 04:37:33PM) Core:0 "Loop iteration 1"
(06/27/2025 04:37:33PM) Core:0 "Loop iteration 2"
(06/27/2025 04:37:33PM) Core:0 "Loop iteration 3"
(06/27/2025 04:37:58PM) Core:1 "ADD result30 = 68 + 3"
(06/27/2025 04:37:58PM) Core:1 "Loop iteration 1"
(06/27/2025 04:37:58PM) Core:1 "Loop iteration 2"
(06/27/2025 04:37:58PM) Core:1 "Loop iteration 3"
(06/27/2025 04:37:58PM) Core:1 "Loop iteration 1"
(06/27/2025 04:37:58PM) Core:1 "Loop iteration 2"
(06/27/2025 04:37:58PM) Core:1 "Loop iteration 3"
(06/27/2025 04:37:58PM) Core:1 "Loop iteration 1"
(06/27/2025 04:37:58PM) Core:1 "Loop iteration 2"
(06/27/2025 04:37:58PM) Core:1 "Loop iteration 3"
(06/27/2025 04:37:58PM) Core:1 "Loop iteration 1"
(06/27/2025 04:37:58PM) Core:1 "Loop iteration 2"
(06/27/2025 04:37:58PM) Core:1 "Loop iteration 3"
(06/27/2025 04:37:58PM) Core:1 "Loop iteration 1"
(06/27/2025 04:37:58PM) Core:1 "Loop iteration 2"
(06/27/2025 04:37:58PM) Core:1 "Loop iteration 3"
(06/27/2025 04:37:58PM) Core:1 "Loop iteration 1"
(06/27/2025 04:37:58PM) Core:1 "Loop iteration 2"
(06/27/2025 04:37:58PM) Core:1 "Loop iteration 3"
(06/27/2025 04:37:58PM) Core:1 "Loop iteration 1"
(06/27/2025 04:37:58PM) Core:1 "Loop iteration 2"
(06/27/2025 04:37:58PM) Core:1 "Loop iteration 3"
(06/27/2025 04:37:58PM) Core:1 "Loop iteration 1"
(06/27/2025 04:37:58PM) Core:1 "Loop iteration 2"
(06/27/2025 04:37:58PM) Core:1 "Loop iteration 3"
(06/27/2025 04:37:58PM) Core:1 "Loop iteration 1"
(06/27/2025 04:37:58PM) Core:1 "Loop iteration 2"
(06/27/2025 04:37:58PM) Core:1 "Loop iteration 3"
(06/27/2025 04:38:26PM) Core:3 "Loop iteration 1"
(06/27/2025 04:38:26PM) Core:3 "Loop iteration 2"
(06/27/2025 04:38:26PM) Core:3 "Loop iteration 3"
(06/27/2025 04:38:26PM) Core:3 "Loop iteration 1"
(06/27/2025 04:38:26PM) Core:3 "Loop iteration 2"
(06/27/2025 04:38:26PM) Core:3 "Loop iteration 3"
(06/27/2025 04:38:26PM) Core:3 "Hello from p39 [34]"
(06/27/2025 04:38:26PM) Core:3 "ADD result35 = 68 + 3"
(06/27/2025 04:38:59PM) Core:1 "Hello from p39 [36]"
(06/27/2025 04:38:59PM) Core:1 "Hello from p39 [37]"
(06/27/2025 04:38:59PM) Core:1 "Hello from p39 [38]"
(06/27/2025 04:39:39PM) Core:2 "ADD result39 = 25 + 68"
(06/27/2025 04:41:34PM) Core:2 "DECLARE var0 = 11"
(06/27/2025 04:41:34PM) Core:2 "DECLARE var1 = 87"
(06/27/2025 04:41:34PM) Core:2 "DECLARE var2 = 68"
(06/27/2025 04:48:12PM) Core:2 "DECLARE var0 = 38"
(06/27/2025 04:48:13PM) Core:2 "DECLARE var1 = 62"
(06/27/2025 04:48:13PM) Core:2 "DECLARE var2 = 42"
(06/27/2025 04:48:19PM) Core:3 "DECLARE var3 = 22"
(06/27/2025 04:48:19PM) Core:3 "DECLARE var4 = 49"
(06/27/2025 04:48:19PM) Core:3 "SUBTRACT result5 = 38 - 62"
