Process name: p74
Process ID: 74
Logs:

(06/26/2025 06:59:53PM) Core:2 "DECLARE var0 = 19"
(06/26/2025 06:59:53PM) Core:2 "DECLARE var1 = 48"
(06/26/2025 06:59:54PM) Core:2 "DECLARE var2 = 26"
(06/26/2025 06:59:54PM) Core:2 "DECLARE var3 = 85"
(06/26/2025 06:59:54PM) Core:2 "DECLARE var4 = 57"
(06/26/2025 06:59:54PM) Core:2 "ADD result5 = 19 + 48"
(06/26/2025 06:59:54PM) Core:2 "Hello from p74 [7]"
(06/26/2025 06:59:55PM) Core:2 "ADD result9 = 57 + 19"
(06/26/2025 06:59:55PM) Core:2 "ADD result10 = 19 + 48"
(06/26/2025 06:59:55PM) Core:2 "Loop iteration 1"
(06/26/2025 06:59:55PM) Core:2 "Loop iteration 2"
(06/26/2025 06:59:55PM) Core:2 "Loop iteration 3"
(06/26/2025 06:59:55PM) Core:2 "Loop iteration 1"
(06/26/2025 06:59:55PM) Core:2 "Loop iteration 2"
(06/26/2025 06:59:55PM) Core:2 "Loop iteration 3"
(06/26/2025 06:59:55PM) Core:2 "Loop iteration 1"
(06/26/2025 06:59:55PM) Core:2 "Loop iteration 2"
(06/26/2025 06:59:55PM) Core:2 "Loop iteration 3"
(06/26/2025 06:59:55PM) Core:2 "Loop iteration 1"
(06/26/2025 06:59:55PM) Core:2 "Loop iteration 2"
(06/26/2025 06:59:55PM) Core:2 "Loop iteration 3"
(06/26/2025 06:59:55PM) Core:2 "Loop iteration 1"
(06/26/2025 06:59:55PM) Core:2 "Loop iteration 2"
(06/26/2025 06:59:55PM) Core:2 "Loop iteration 3"
(06/26/2025 06:59:56PM) Core:2 "Loop iteration 1"
(06/26/2025 06:59:56PM) Core:2 "Loop iteration 2"
(06/26/2025 06:59:56PM) Core:2 "Loop iteration 3"
(06/26/2025 06:59:56PM) Core:2 "Loop iteration 1"
(06/26/2025 06:59:56PM) Core:2 "Loop iteration 2"
(06/26/2025 06:59:56PM) Core:2 "Loop iteration 3"
(06/26/2025 06:59:56PM) Core:2 "Loop iteration 1"
(06/26/2025 06:59:56PM) Core:2 "Loop iteration 2"
(06/26/2025 06:59:56PM) Core:2 "Loop iteration 3"
(06/26/2025 06:59:56PM) Core:2 "Loop iteration 1"
(06/26/2025 06:59:56PM) Core:2 "Loop iteration 2"
(06/26/2025 06:59:56PM) Core:2 "Loop iteration 3"
(06/26/2025 06:59:56PM) Core:2 "Loop iteration 1"
(06/26/2025 06:59:56PM) Core:2 "Loop iteration 2"
(06/26/2025 06:59:56PM) Core:2 "Loop iteration 3"
(06/26/2025 06:59:56PM) Core:2 "DECLARE var14 = 9"
(06/26/2025 06:59:56PM) Core:2 "ADD result15 = 19 + 48"
(06/26/2025 06:59:57PM) Core:2 "Loop iteration 1"
(06/26/2025 06:59:57PM) Core:2 "Loop iteration 2"
(06/26/2025 06:59:57PM) Core:2 "Loop iteration 3"
(06/26/2025 06:59:57PM) Core:2 "Loop iteration 1"
(06/26/2025 06:59:57PM) Core:2 "Loop iteration 2"
(06/26/2025 06:59:57PM) Core:2 "Loop iteration 3"
(06/26/2025 06:59:57PM) Core:2 "Loop iteration 1"
(06/26/2025 06:59:57PM) Core:2 "Loop iteration 2"
(06/26/2025 06:59:57PM) Core:2 "Loop iteration 3"
(06/26/2025 06:59:57PM) Core:2 "Loop iteration 1"
(06/26/2025 06:59:57PM) Core:2 "Loop iteration 2"
(06/26/2025 06:59:57PM) Core:2 "Loop iteration 3"
(06/26/2025 06:59:57PM) Core:2 "DECLARE var19 = 34"
(06/26/2025 06:59:57PM) Core:2 "DECLARE var20 = 47"
(06/26/2025 06:59:58PM) Core:2 "DECLARE var21 = 88"
(06/26/2025 06:59:58PM) Core:2 "DECLARE var22 = 65"
(06/26/2025 06:59:58PM) Core:2 "ADD result23 = 85 + 57"
(06/26/2025 06:59:58PM) Core:2 "SUBTRACT result24 = 57 - 19"
(06/26/2025 06:59:58PM) Core:2 "Loop iteration 1"
(06/26/2025 06:59:58PM) Core:2 "Loop iteration 2"
(06/26/2025 06:59:58PM) Core:2 "Loop iteration 3"
(06/26/2025 06:59:58PM) Core:2 "Loop iteration 1"
(06/26/2025 06:59:58PM) Core:2 "Loop iteration 2"
(06/26/2025 06:59:58PM) Core:2 "Loop iteration 3"
(06/26/2025 06:59:58PM) Core:2 "Loop iteration 1"
(06/26/2025 06:59:58PM) Core:2 "Loop iteration 2"
(06/26/2025 06:59:58PM) Core:2 "Loop iteration 3"
(06/26/2025 06:59:58PM) Core:2 "Loop iteration 1"
(06/26/2025 06:59:58PM) Core:2 "Loop iteration 2"
(06/26/2025 06:59:58PM) Core:2 "Loop iteration 3"
(06/26/2025 06:59:58PM) Core:2 "Loop iteration 1"
(06/26/2025 06:59:58PM) Core:2 "Loop iteration 2"
(06/26/2025 06:59:58PM) Core:2 "Loop iteration 3"
(06/26/2025 06:59:58PM) Core:2 "Hello from p74 [26]"
(06/26/2025 06:59:58PM) Core:2 "Loop iteration 1"
(06/26/2025 06:59:58PM) Core:2 "Loop iteration 2"
(06/26/2025 06:59:58PM) Core:2 "Loop iteration 3"
(06/26/2025 06:59:58PM) Core:2 "Loop iteration 1"
(06/26/2025 06:59:58PM) Core:2 "Loop iteration 2"
(06/26/2025 06:59:58PM) Core:2 "Loop iteration 3"
(06/26/2025 06:59:58PM) Core:2 "DECLARE var28 = 81"
(06/26/2025 06:59:59PM) Core:2 "Hello from p74 [30]"
(06/26/2025 07:00:00PM) Core:2 "ADD result31 = 48 + 26"
(06/26/2025 07:00:00PM) Core:2 "Loop iteration 1"
(06/26/2025 07:00:00PM) Core:2 "Loop iteration 2"
(06/26/2025 07:00:00PM) Core:2 "Loop iteration 3"
(06/26/2025 07:00:00PM) Core:2 "Loop iteration 1"
(06/26/2025 07:00:00PM) Core:2 "Loop iteration 2"
(06/26/2025 07:00:00PM) Core:2 "Loop iteration 3"
(06/26/2025 07:00:00PM) Core:2 "Loop iteration 1"
(06/26/2025 07:00:00PM) Core:2 "Loop iteration 2"
(06/26/2025 07:00:00PM) Core:2 "Loop iteration 3"
(06/26/2025 07:00:00PM) Core:2 "Loop iteration 1"
(06/26/2025 07:00:00PM) Core:2 "Loop iteration 2"
(06/26/2025 07:00:00PM) Core:2 "Loop iteration 3"
(06/26/2025 07:00:00PM) Core:2 "SUBTRACT result33 = 85 - 57"
(06/26/2025 07:00:00PM) Core:2 "ADD result34 = 57 + 19"
(06/26/2025 07:00:00PM) Core:2 "Loop iteration 1"
(06/26/2025 07:00:00PM) Core:2 "Loop iteration 2"
(06/26/2025 07:00:00PM) Core:2 "Loop iteration 3"
(06/26/2025 07:00:00PM) Core:2 "Loop iteration 1"
(06/26/2025 07:00:00PM) Core:2 "Loop iteration 2"
(06/26/2025 07:00:00PM) Core:2 "Loop iteration 3"
(06/26/2025 07:00:00PM) Core:2 "Loop iteration 1"
(06/26/2025 07:00:00PM) Core:2 "Loop iteration 2"
(06/26/2025 07:00:00PM) Core:2 "Loop iteration 3"
(06/26/2025 07:00:00PM) Core:2 "Loop iteration 1"
(06/26/2025 07:00:00PM) Core:2 "Loop iteration 2"
(06/26/2025 07:00:00PM) Core:2 "Loop iteration 3"
(06/26/2025 07:00:00PM) Core:2 "Loop iteration 1"
(06/26/2025 07:00:00PM) Core:2 "Loop iteration 2"
(06/26/2025 07:00:00PM) Core:2 "Loop iteration 3"
(06/26/2025 07:00:01PM) Core:2 "SUBTRACT result37 = 26 - 85"
(06/26/2025 07:00:01PM) Core:2 "ADD result38 = 85 + 57"
(06/26/2025 07:00:01PM) Core:2 "ADD result39 = 57 + 19"
(06/26/2025 07:00:01PM) Core:2 "ADD result40 = 19 + 48"
(06/26/2025 07:00:01PM) Core:2 "SUBTRACT result41 = 48 - 26"
(06/26/2025 07:00:01PM) Core:2 "DECLARE var42 = 32"
(06/26/2025 07:00:02PM) Core:2 "Hello from p74 [44]"
(06/26/2025 07:00:03PM) Core:2 "ADD result46 = 48 + 26"
(06/26/2025 07:00:03PM) Core:2 "SUBTRACT result47 = 26 - 85"
(06/26/2025 07:00:03PM) Core:2 "SUBTRACT result48 = 85 - 57"
(06/26/2025 07:00:03PM) Core:2 "ADD result49 = 57 + 19"
(06/26/2025 07:00:03PM) Core:2 "SUBTRACT result50 = 19 - 48"
(06/26/2025 07:00:03PM) Core:2 "DECLARE var51 = 22"
(06/26/2025 07:00:05PM) Core:2 "Loop iteration 1"
(06/26/2025 07:00:05PM) Core:2 "Loop iteration 2"
(06/26/2025 07:00:05PM) Core:2 "Loop iteration 3"
(06/26/2025 07:00:05PM) Core:2 "Loop iteration 1"
(06/26/2025 07:00:05PM) Core:2 "Loop iteration 2"
(06/26/2025 07:00:05PM) Core:2 "Loop iteration 3"
(06/26/2025 07:00:05PM) Core:2 "Loop iteration 1"
(06/26/2025 07:00:05PM) Core:2 "Loop iteration 2"
(06/26/2025 07:00:05PM) Core:2 "Loop iteration 3"
(06/26/2025 07:00:05PM) Core:2 "DECLARE var54 = 15"
(06/26/2025 07:00:05PM) Core:2 "SUBTRACT result55 = 19 - 48"
(06/26/2025 07:00:06PM) Core:2 "ADD result57 = 26 + 85"
(06/26/2025 07:00:06PM) Core:2 "Hello from p74 [58]"
(06/26/2025 07:00:07PM) Core:2 "Hello from p74 [60]"
(06/26/2025 07:00:07PM) Core:2 "SUBTRACT result61 = 48 - 26"
(06/26/2025 07:00:07PM) Core:2 "Hello from p74 [62]"
(06/26/2025 07:00:07PM) Core:2 "Hello from p74 [63]"
(06/26/2025 07:00:08PM) Core:2 "Hello from p74 [65]"
(06/26/2025 07:00:09PM) Core:2 "Hello from p74 [67]"
(06/26/2025 07:00:09PM) Core:2 "SUBTRACT result69 = 57 - 19"
(06/26/2025 07:00:09PM) Core:2 "Hello from p74 [70]"
(06/26/2025 07:00:10PM) Core:2 "DECLARE var71 = 50"
(06/26/2025 07:00:10PM) Core:2 "Hello from p74 [72]"
(06/27/2025 12:16:59AM) Core:2 "DECLARE var0 = 61"
(06/27/2025 12:16:59AM) Core:2 "DECLARE var1 = 41"
(06/27/2025 12:16:59AM) Core:2 "DECLARE var2 = 18"
(06/27/2025 12:17:11AM) Core:1 "DECLARE var3 = 38"
(06/27/2025 12:17:12AM) Core:1 "DECLARE var4 = 51"
(06/27/2025 12:17:12AM) Core:1 "Loop iteration 1"
(06/27/2025 12:17:12AM) Core:1 "Loop iteration 2"
(06/27/2025 12:17:12AM) Core:1 "Loop iteration 3"
(06/27/2025 12:17:12AM) Core:1 "Loop iteration 1"
(06/27/2025 12:17:12AM) Core:1 "Loop iteration 2"
(06/27/2025 12:17:12AM) Core:1 "Loop iteration 3"
(06/27/2025 12:17:12AM) Core:1 "Loop iteration 1"
(06/27/2025 12:17:12AM) Core:1 "Loop iteration 2"
(06/27/2025 12:17:12AM) Core:1 "Loop iteration 3"
(06/27/2025 12:17:24AM) Core:3 "SUBTRACT result6 = 41 - 18"
(06/27/2025 12:17:25AM) Core:3 "Loop iteration 1"
(06/27/2025 12:17:25AM) Core:3 "Loop iteration 2"
(06/27/2025 12:17:25AM) Core:3 "Loop iteration 3"
(06/27/2025 12:17:25AM) Core:3 "Loop iteration 1"
(06/27/2025 12:17:25AM) Core:3 "Loop iteration 2"
(06/27/2025 12:17:25AM) Core:3 "Loop iteration 3"
(06/27/2025 12:17:25AM) Core:3 "Loop iteration 1"
(06/27/2025 12:17:25AM) Core:3 "Loop iteration 2"
(06/27/2025 12:17:25AM) Core:3 "Loop iteration 3"
(06/27/2025 12:17:40AM) Core:2 "DECLARE var9 = 87"
(06/27/2025 12:17:41AM) Core:2 "Hello from p74 [10]"
(06/27/2025 12:17:41AM) Core:2 "Hello from p74 [11]"
(06/27/2025 12:17:59AM) Core:2 "ADD result13 = 38 + 51"
(06/27/2025 12:17:59AM) Core:2 "Hello from p74 [14]"
(06/27/2025 12:18:19AM) Core:1 "ADD result15 = 61 + 41"
(06/27/2025 12:18:19AM) Core:1 "DECLARE var16 = 1"
(06/27/2025 12:18:43AM) Core:2 "Loop iteration 1"
(06/27/2025 12:18:43AM) Core:2 "Loop iteration 2"
(06/27/2025 12:18:43AM) Core:2 "Loop iteration 3"
(06/27/2025 12:18:43AM) Core:2 "Loop iteration 1"
(06/27/2025 12:18:43AM) Core:2 "Loop iteration 2"
(06/27/2025 12:18:43AM) Core:2 "Loop iteration 3"
(06/27/2025 12:18:43AM) Core:2 "Loop iteration 1"
(06/27/2025 12:18:43AM) Core:2 "Loop iteration 2"
(06/27/2025 12:18:43AM) Core:2 "Loop iteration 3"
(06/27/2025 12:18:43AM) Core:2 "Loop iteration 1"
(06/27/2025 12:18:43AM) Core:2 "Loop iteration 2"
(06/27/2025 12:18:43AM) Core:2 "Loop iteration 3"
(06/27/2025 12:18:43AM) Core:2 "Loop iteration 1"
(06/27/2025 12:18:43AM) Core:2 "Loop iteration 2"
(06/27/2025 12:18:43AM) Core:2 "Loop iteration 3"
(06/27/2025 12:18:43AM) Core:2 "Loop iteration 1"
(06/27/2025 12:18:43AM) Core:2 "Loop iteration 2"
(06/27/2025 12:18:43AM) Core:2 "Loop iteration 3"
(06/27/2025 12:18:43AM) Core:2 "Loop iteration 1"
(06/27/2025 12:18:43AM) Core:2 "Loop iteration 2"
(06/27/2025 12:18:43AM) Core:2 "Loop iteration 3"
(06/27/2025 12:18:43AM) Core:2 "Loop iteration 1"
(06/27/2025 12:18:43AM) Core:2 "Loop iteration 2"
(06/27/2025 12:18:43AM) Core:2 "Loop iteration 3"
(06/27/2025 12:18:43AM) Core:2 "Loop iteration 1"
(06/27/2025 12:18:43AM) Core:2 "Loop iteration 2"
(06/27/2025 12:18:43AM) Core:2 "Loop iteration 3"
(06/27/2025 12:18:43AM) Core:2 "DECLARE var20 = 57"
(06/27/2025 12:19:11AM) Core:0 "SUBTRACT result21 = 41 - 18"
(06/27/2025 12:19:11AM) Core:0 "ADD result22 = 18 + 38"
(06/27/2025 12:19:11AM) Core:0 "ADD result23 = 38 + 51"
(06/27/2025 12:19:44AM) Core:3 "SUBTRACT result24 = 51 - 61"
(06/27/2025 12:19:44AM) Core:3 "ADD result25 = 61 + 41"
(06/27/2025 12:19:44AM) Core:3 "Hello from p74 [26]"
(06/27/2025 12:20:18AM) Core:1 "SUBTRACT result27 = 18 - 38"
(06/27/2025 12:20:18AM) Core:1 "Loop iteration 1"
(06/27/2025 12:20:18AM) Core:1 "Loop iteration 2"
(06/27/2025 12:20:18AM) Core:1 "Loop iteration 3"
(06/27/2025 12:20:18AM) Core:1 "Loop iteration 1"
(06/27/2025 12:20:18AM) Core:1 "Loop iteration 2"
(06/27/2025 12:20:18AM) Core:1 "Loop iteration 3"
(06/27/2025 12:20:18AM) Core:1 "Loop iteration 1"
(06/27/2025 12:20:18AM) Core:1 "Loop iteration 2"
(06/27/2025 12:20:18AM) Core:1 "Loop iteration 3"
(06/27/2025 12:20:18AM) Core:1 "Loop iteration 1"
(06/27/2025 12:20:18AM) Core:1 "Loop iteration 2"
(06/27/2025 12:20:18AM) Core:1 "Loop iteration 3"
(06/27/2025 12:20:18AM) Core:1 "Loop iteration 1"
(06/27/2025 12:20:18AM) Core:1 "Loop iteration 2"
(06/27/2025 12:20:18AM) Core:1 "Loop iteration 3"
(06/27/2025 12:21:04AM) Core:0 "ADD result30 = 61 + 41"
(06/27/2025 12:21:04AM) Core:0 "Hello from p74 [31]"
(06/27/2025 12:21:04AM) Core:0 "ADD result32 = 18 + 38"
(06/27/2025 12:21:52AM) Core:3 "Hello from p74 [33]"
(06/27/2025 12:22:49AM) Core:1 "Loop iteration 1"
(06/27/2025 12:22:49AM) Core:1 "Loop iteration 2"
(06/27/2025 12:22:49AM) Core:1 "Loop iteration 3"
(06/27/2025 12:22:49AM) Core:1 "Loop iteration 1"
(06/27/2025 12:22:49AM) Core:1 "Loop iteration 2"
(06/27/2025 12:22:49AM) Core:1 "Loop iteration 3"
(06/27/2025 12:22:49AM) Core:1 "Loop iteration 1"
(06/27/2025 12:22:49AM) Core:1 "Loop iteration 2"
(06/27/2025 12:22:49AM) Core:1 "Loop iteration 3"
(06/27/2025 12:22:49AM) Core:1 "Loop iteration 1"
(06/27/2025 12:22:49AM) Core:1 "Loop iteration 2"
(06/27/2025 12:22:49AM) Core:1 "Loop iteration 3"
(06/27/2025 12:22:49AM) Core:1 "Loop iteration 1"
(06/27/2025 12:22:49AM) Core:1 "Loop iteration 2"
(06/27/2025 12:22:49AM) Core:1 "Loop iteration 3"
(06/27/2025 12:22:49AM) Core:1 "Loop iteration 1"
(06/27/2025 12:22:49AM) Core:1 "Loop iteration 2"
(06/27/2025 12:22:49AM) Core:1 "Loop iteration 3"
(06/27/2025 12:22:49AM) Core:1 "SUBTRACT result38 = 38 - 51"
(06/27/2025 12:24:55AM) Core:2 "DECLARE var0 = 73"
(06/27/2025 12:24:55AM) Core:2 "DECLARE var1 = 93"
(06/27/2025 12:24:55AM) Core:2 "DECLARE var2 = 51"
(06/27/2025 12:24:55AM) Core:2 "DECLARE var3 = 51"
(06/27/2025 12:25:11AM) Core:1 "DECLARE var4 = 23"
(06/27/2025 12:25:11AM) Core:1 "SUBTRACT result5 = 73 - 93"
(06/27/2025 12:25:11AM) Core:1 "Hello from p74 [6]"
(06/27/2025 12:25:11AM) Core:1 "DECLARE var7 = 63"
(06/27/2025 12:25:32AM) Core:1 "Loop iteration 1"
(06/27/2025 12:25:32AM) Core:1 "Loop iteration 2"
(06/27/2025 12:25:32AM) Core:1 "Loop iteration 3"
(06/27/2025 12:25:32AM) Core:1 "Loop iteration 1"
(06/27/2025 12:25:32AM) Core:1 "Loop iteration 2"
(06/27/2025 12:25:32AM) Core:1 "Loop iteration 3"
(06/27/2025 12:25:32AM) Core:1 "Loop iteration 1"
(06/27/2025 12:25:32AM) Core:1 "Loop iteration 2"
(06/27/2025 12:25:32AM) Core:1 "Loop iteration 3"
(06/27/2025 12:25:32AM) Core:1 "Loop iteration 1"
(06/27/2025 12:25:32AM) Core:1 "Loop iteration 2"
(06/27/2025 12:25:32AM) Core:1 "Loop iteration 3"
(06/27/2025 12:25:32AM) Core:1 "Loop iteration 1"
(06/27/2025 12:25:32AM) Core:1 "Loop iteration 2"
(06/27/2025 12:25:32AM) Core:1 "Loop iteration 3"
(06/27/2025 12:25:32AM) Core:1 "Loop iteration 1"
(06/27/2025 12:25:32AM) Core:1 "Loop iteration 2"
(06/27/2025 12:25:32AM) Core:1 "Loop iteration 3"
(06/27/2025 12:25:32AM) Core:1 "Loop iteration 1"
(06/27/2025 12:25:32AM) Core:1 "Loop iteration 2"
(06/27/2025 12:25:32AM) Core:1 "Loop iteration 3"
(06/27/2025 12:25:32AM) Core:1 "Loop iteration 1"
(06/27/2025 12:25:32AM) Core:1 "Loop iteration 2"
(06/27/2025 12:25:32AM) Core:1 "Loop iteration 3"
(06/27/2025 12:25:32AM) Core:1 "SUBTRACT result10 = 73 - 93"
(06/27/2025 12:25:33AM) Core:1 "DECLARE var11 = 67"
(06/27/2025 12:28:49AM) Core:1 "DECLARE var0 = 76"
(06/27/2025 12:28:49AM) Core:1 "DECLARE var1 = 1"
(06/27/2025 12:28:50AM) Core:1 "DECLARE var2 = 88"
(06/27/2025 04:18:57PM) Core:2 "DECLARE var0 = 46"
(06/27/2025 04:18:57PM) Core:2 "DECLARE var1 = 76"
(06/27/2025 04:18:57PM) Core:2 "DECLARE var2 = 66"
(06/27/2025 04:19:09PM) Core:3 "DECLARE var3 = 14"
(06/27/2025 04:19:09PM) Core:3 "DECLARE var4 = 92"
(06/27/2025 04:19:09PM) Core:3 "SUBTRACT result5 = 46 - 76"
(06/27/2025 04:19:25PM) Core:2 "Hello from p74 [6]"
(06/27/2025 04:19:25PM) Core:2 "DECLARE var7 = 9"
(06/27/2025 04:19:25PM) Core:2 "Loop iteration 1"
(06/27/2025 04:19:25PM) Core:2 "Loop iteration 2"
(06/27/2025 04:19:25PM) Core:2 "Loop iteration 3"
(06/27/2025 04:19:25PM) Core:2 "Loop iteration 1"
(06/27/2025 04:19:25PM) Core:2 "Loop iteration 2"
(06/27/2025 04:19:25PM) Core:2 "Loop iteration 3"
(06/27/2025 04:19:25PM) Core:2 "Loop iteration 1"
(06/27/2025 04:19:25PM) Core:2 "Loop iteration 2"
(06/27/2025 04:19:25PM) Core:2 "Loop iteration 3"
(06/27/2025 04:19:25PM) Core:2 "Loop iteration 1"
(06/27/2025 04:19:25PM) Core:2 "Loop iteration 2"
(06/27/2025 04:19:25PM) Core:2 "Loop iteration 3"
(06/27/2025 04:19:42PM) Core:3 "SUBTRACT result10 = 46 - 76"
(06/27/2025 04:20:03PM) Core:2 "SUBTRACT result12 = 66 - 14"
(06/27/2025 04:20:04PM) Core:2 "Loop iteration 1"
(06/27/2025 04:20:04PM) Core:2 "Loop iteration 2"
(06/27/2025 04:20:04PM) Core:2 "Loop iteration 3"
(06/27/2025 04:20:04PM) Core:2 "Loop iteration 1"
(06/27/2025 04:20:04PM) Core:2 "Loop iteration 2"
(06/27/2025 04:20:04PM) Core:2 "Loop iteration 3"
(06/27/2025 04:20:04PM) Core:2 "Loop iteration 1"
(06/27/2025 04:20:04PM) Core:2 "Loop iteration 2"
(06/27/2025 04:20:04PM) Core:2 "Loop iteration 3"
(06/27/2025 04:20:04PM) Core:2 "Loop iteration 1"
(06/27/2025 04:20:04PM) Core:2 "Loop iteration 2"
(06/27/2025 04:20:04PM) Core:2 "Loop iteration 3"
(06/27/2025 04:20:04PM) Core:2 "SUBTRACT result14 = 92 - 46"
(06/27/2025 04:20:26PM) Core:1 "ADD result15 = 46 + 76"
(06/27/2025 04:20:26PM) Core:1 "ADD result16 = 76 + 66"
(06/27/2025 04:20:26PM) Core:1 "Hello from p74 [17]"
(06/27/2025 04:20:51PM) Core:1 "DECLARE var18 = 31"
(06/27/2025 04:20:52PM) Core:1 "ADD result19 = 92 + 46"
(06/27/2025 04:20:52PM) Core:1 "SUBTRACT result20 = 46 - 76"
(06/27/2025 04:21:21PM) Core:0 "SUBTRACT result21 = 76 - 66"
(06/27/2025 04:21:21PM) Core:0 "SUBTRACT result22 = 66 - 14"
(06/27/2025 04:21:21PM) Core:0 "ADD result23 = 14 + 92"
(06/27/2025 04:21:56PM) Core:3 "Hello from p74 [24]"
(06/27/2025 04:21:56PM) Core:3 "Hello from p74 [25]"
(06/27/2025 04:21:57PM) Core:3 "SUBTRACT result26 = 76 - 66"
(06/27/2025 04:36:12PM) Core:2 "DECLARE var0 = 42"
(06/27/2025 04:36:12PM) Core:2 "DECLARE var1 = 37"
(06/27/2025 04:36:12PM) Core:2 "DECLARE var2 = 17"
(06/27/2025 04:36:25PM) Core:0 "DECLARE var3 = 26"
(06/27/2025 04:36:25PM) Core:0 "DECLARE var4 = 26"
(06/27/2025 04:36:25PM) Core:0 "ADD result5 = 42 + 37"
(06/27/2025 04:36:39PM) Core:0 "DECLARE var6 = 54"
(06/27/2025 04:36:39PM) Core:0 "Loop iteration 1"
(06/27/2025 04:36:39PM) Core:0 "Loop iteration 2"
(06/27/2025 04:36:39PM) Core:0 "Loop iteration 3"
(06/27/2025 04:36:39PM) Core:0 "Loop iteration 1"
(06/27/2025 04:36:39PM) Core:0 "Loop iteration 2"
(06/27/2025 04:36:39PM) Core:0 "Loop iteration 3"
(06/27/2025 04:36:39PM) Core:0 "ADD result8 = 26 + 26"
(06/27/2025 04:36:57PM) Core:0 "DECLARE var9 = 81"
(06/27/2025 04:36:57PM) Core:0 "Hello from p74 [10]"
(06/27/2025 04:36:57PM) Core:0 "Hello from p74 [11]"
(06/27/2025 04:37:16PM) Core:0 "SUBTRACT result12 = 17 - 26"
(06/27/2025 04:37:16PM) Core:0 "Loop iteration 1"
(06/27/2025 04:37:16PM) Core:0 "Loop iteration 2"
(06/27/2025 04:37:16PM) Core:0 "Loop iteration 3"
(06/27/2025 04:37:16PM) Core:0 "Loop iteration 1"
(06/27/2025 04:37:16PM) Core:0 "Loop iteration 2"
(06/27/2025 04:37:16PM) Core:0 "Loop iteration 3"
(06/27/2025 04:37:16PM) Core:0 "Loop iteration 1"
(06/27/2025 04:37:16PM) Core:0 "Loop iteration 2"
(06/27/2025 04:37:16PM) Core:0 "Loop iteration 3"
(06/27/2025 04:37:16PM) Core:0 "Hello from p74 [14]"
(06/27/2025 04:37:40PM) Core:0 "Loop iteration 1"
(06/27/2025 04:37:40PM) Core:0 "Loop iteration 2"
(06/27/2025 04:37:40PM) Core:0 "Loop iteration 3"
(06/27/2025 04:37:40PM) Core:0 "Loop iteration 1"
(06/27/2025 04:37:40PM) Core:0 "Loop iteration 2"
(06/27/2025 04:37:40PM) Core:0 "Loop iteration 3"
(06/27/2025 04:37:40PM) Core:0 "DECLARE var16 = 30"
(06/27/2025 04:37:40PM) Core:0 "Hello from p74 [17]"
(06/27/2025 04:38:06PM) Core:1 "DECLARE var19 = 12"
(06/27/2025 04:38:06PM) Core:1 "SUBTRACT result20 = 42 - 37"
(06/27/2025 04:38:37PM) Core:1 "ADD result21 = 37 + 17"
(06/27/2025 04:38:37PM) Core:1 "DECLARE var22 = 8"
(06/27/2025 04:38:37PM) Core:1 "DECLARE var23 = 35"
(06/27/2025 04:39:11PM) Core:0 "SUBTRACT result24 = 26 - 42"
(06/27/2025 04:39:11PM) Core:0 "SUBTRACT result25 = 42 - 37"
(06/27/2025 04:39:11PM) Core:0 "DECLARE var26 = 23"
(06/27/2025 04:39:55PM) Core:3 "Loop iteration 1"
(06/27/2025 04:39:55PM) Core:3 "Loop iteration 2"
(06/27/2025 04:39:55PM) Core:3 "Loop iteration 3"
(06/27/2025 04:39:55PM) Core:3 "Loop iteration 1"
(06/27/2025 04:39:55PM) Core:3 "Loop iteration 2"
(06/27/2025 04:39:55PM) Core:3 "Loop iteration 3"
(06/27/2025 04:39:55PM) Core:3 "Loop iteration 1"
(06/27/2025 04:39:55PM) Core:3 "Loop iteration 2"
(06/27/2025 04:39:55PM) Core:3 "Loop iteration 3"
(06/27/2025 04:39:55PM) Core:3 "Loop iteration 1"
(06/27/2025 04:39:55PM) Core:3 "Loop iteration 2"
(06/27/2025 04:39:55PM) Core:3 "Loop iteration 3"
