Process name: p87
Process ID: 87
Logs:

(06/26/2025 07:00:40PM) Core:2 "DECLARE var0 = 84"
(06/26/2025 07:00:40PM) Core:2 "DECLARE var1 = 50"
(06/26/2025 07:00:40PM) Core:2 "DECLARE var2 = 10"
(06/26/2025 07:00:40PM) Core:2 "DECLARE var3 = 93"
(06/26/2025 07:00:40PM) Core:2 "DECLARE var4 = 67"
(06/26/2025 07:00:41PM) Core:2 "Loop iteration 1"
(06/26/2025 07:00:41PM) Core:2 "Loop iteration 2"
(06/26/2025 07:00:41PM) Core:2 "Loop iteration 3"
(06/26/2025 07:00:41PM) Core:2 "Loop iteration 1"
(06/26/2025 07:00:41PM) Core:2 "Loop iteration 2"
(06/26/2025 07:00:41PM) Core:2 "Loop iteration 3"
(06/26/2025 07:00:41PM) Core:2 "Loop iteration 1"
(06/26/2025 07:00:41PM) Core:2 "Loop iteration 2"
(06/26/2025 07:00:41PM) Core:2 "Loop iteration 3"
(06/26/2025 07:00:41PM) Core:2 "SUBTRACT result7 = 10 - 93"
(06/26/2025 07:00:41PM) Core:2 "DECLARE var8 = 5"
(06/26/2025 07:00:41PM) Core:2 "Hello from p87 [9]"
(06/26/2025 07:00:41PM) Core:2 "ADD result10 = 84 + 50"
(06/26/2025 07:00:41PM) Core:2 "Hello from p87 [11]"
(06/26/2025 07:00:41PM) Core:2 "SUBTRACT result12 = 10 - 93"
(06/26/2025 07:00:42PM) Core:2 "SUBTRACT result14 = 67 - 84"
(06/26/2025 07:00:42PM) Core:2 "Hello from p87 [15]"
(06/26/2025 07:00:42PM) Core:2 "DECLARE var16 = 24"
(06/26/2025 07:00:42PM) Core:2 "Hello from p87 [17]"
(06/26/2025 07:00:42PM) Core:2 "Loop iteration 1"
(06/26/2025 07:00:42PM) Core:2 "Loop iteration 2"
(06/26/2025 07:00:42PM) Core:2 "Loop iteration 3"
(06/26/2025 07:00:42PM) Core:2 "Loop iteration 1"
(06/26/2025 07:00:42PM) Core:2 "Loop iteration 2"
(06/26/2025 07:00:42PM) Core:2 "Loop iteration 3"
(06/26/2025 07:00:42PM) Core:2 "Loop iteration 1"
(06/26/2025 07:00:42PM) Core:2 "Loop iteration 2"
(06/26/2025 07:00:42PM) Core:2 "Loop iteration 3"
(06/26/2025 07:00:42PM) Core:2 "Loop iteration 1"
(06/26/2025 07:00:42PM) Core:2 "Loop iteration 2"
(06/26/2025 07:00:42PM) Core:2 "Loop iteration 3"
(06/26/2025 07:00:42PM) Core:2 "Loop iteration 1"
(06/26/2025 07:00:42PM) Core:2 "Loop iteration 2"
(06/26/2025 07:00:42PM) Core:2 "Loop iteration 3"
(06/26/2025 07:00:43PM) Core:2 "Hello from p87 [19]"
(06/26/2025 07:00:43PM) Core:2 "Hello from p87 [20]"
(06/26/2025 07:00:43PM) Core:2 "DECLARE var21 = 90"
(06/26/2025 07:00:43PM) Core:2 "DECLARE var22 = 99"
(06/26/2025 07:00:43PM) Core:2 "Loop iteration 1"
(06/26/2025 07:00:43PM) Core:2 "Loop iteration 2"
(06/26/2025 07:00:43PM) Core:2 "Loop iteration 3"
(06/26/2025 07:00:43PM) Core:2 "Loop iteration 1"
(06/26/2025 07:00:43PM) Core:2 "Loop iteration 2"
(06/26/2025 07:00:43PM) Core:2 "Loop iteration 3"
(06/26/2025 07:00:43PM) Core:2 "Loop iteration 1"
(06/26/2025 07:00:43PM) Core:2 "Loop iteration 2"
(06/26/2025 07:00:43PM) Core:2 "Loop iteration 3"
(06/26/2025 07:00:43PM) Core:2 "Loop iteration 1"
(06/26/2025 07:00:43PM) Core:2 "Loop iteration 2"
(06/26/2025 07:00:43PM) Core:2 "Loop iteration 3"
(06/26/2025 07:00:43PM) Core:2 "Loop iteration 1"
(06/26/2025 07:00:43PM) Core:2 "Loop iteration 2"
(06/26/2025 07:00:43PM) Core:2 "Loop iteration 3"
(06/26/2025 07:00:43PM) Core:2 "DECLARE var24 = 81"
(06/26/2025 07:00:43PM) Core:2 "ADD result25 = 84 + 50"
(06/26/2025 07:00:43PM) Core:2 "SUBTRACT result26 = 50 - 10"
(06/26/2025 07:00:43PM) Core:2 "Hello from p87 [27]"
(06/26/2025 07:00:43PM) Core:2 "Hello from p87 [28]"
(06/26/2025 07:00:44PM) Core:2 "Loop iteration 1"
(06/26/2025 07:00:44PM) Core:2 "Loop iteration 2"
(06/26/2025 07:00:44PM) Core:2 "Loop iteration 3"
(06/26/2025 07:00:44PM) Core:2 "Loop iteration 1"
(06/26/2025 07:00:44PM) Core:2 "Loop iteration 2"
(06/26/2025 07:00:44PM) Core:2 "Loop iteration 3"
(06/26/2025 07:00:44PM) Core:2 "SUBTRACT result30 = 84 - 50"
(06/26/2025 07:00:44PM) Core:2 "SUBTRACT result31 = 50 - 10"
(06/26/2025 07:00:44PM) Core:2 "SUBTRACT result32 = 10 - 93"
(06/26/2025 07:00:44PM) Core:2 "Loop iteration 1"
(06/26/2025 07:00:44PM) Core:2 "Loop iteration 2"
(06/26/2025 07:00:44PM) Core:2 "Loop iteration 3"
(06/26/2025 07:00:44PM) Core:2 "Loop iteration 1"
(06/26/2025 07:00:44PM) Core:2 "Loop iteration 2"
(06/26/2025 07:00:44PM) Core:2 "Loop iteration 3"
(06/26/2025 07:00:44PM) Core:2 "Loop iteration 1"
(06/26/2025 07:00:44PM) Core:2 "Loop iteration 2"
(06/26/2025 07:00:44PM) Core:2 "Loop iteration 3"
(06/26/2025 07:00:44PM) Core:2 "Loop iteration 1"
(06/26/2025 07:00:44PM) Core:2 "Loop iteration 2"
(06/26/2025 07:00:44PM) Core:2 "Loop iteration 3"
(06/26/2025 07:00:44PM) Core:2 "ADD result34 = 67 + 84"
(06/26/2025 07:00:45PM) Core:2 "SUBTRACT result36 = 50 - 10"
(06/26/2025 07:00:46PM) Core:2 "ADD result38 = 93 + 67"
(06/26/2025 07:00:46PM) Core:2 "ADD result39 = 67 + 84"
(06/26/2025 07:00:47PM) Core:2 "SUBTRACT result40 = 84 - 50"
(06/26/2025 07:00:47PM) Core:2 "DECLARE var41 = 72"
(06/26/2025 07:00:47PM) Core:2 "ADD result42 = 10 + 93"
(06/26/2025 07:00:47PM) Core:2 "Hello from p87 [43]"
(06/26/2025 07:00:47PM) Core:2 "DECLARE var44 = 3"
(06/26/2025 07:00:47PM) Core:2 "SUBTRACT result45 = 84 - 50"
(06/26/2025 07:00:48PM) Core:2 "ADD result48 = 93 + 67"
(06/26/2025 07:00:48PM) Core:2 "Loop iteration 1"
(06/26/2025 07:00:48PM) Core:2 "Loop iteration 2"
(06/26/2025 07:00:48PM) Core:2 "Loop iteration 3"
(06/26/2025 07:00:48PM) Core:2 "Loop iteration 1"
(06/26/2025 07:00:48PM) Core:2 "Loop iteration 2"
(06/26/2025 07:00:48PM) Core:2 "Loop iteration 3"
(06/26/2025 07:00:49PM) Core:2 "Hello from p87 [51]"
(06/26/2025 07:00:49PM) Core:2 "ADD result52 = 10 + 93"
(06/26/2025 07:00:51PM) Core:2 "SUBTRACT result55 = 84 - 50"
(06/26/2025 07:00:51PM) Core:2 "ADD result56 = 50 + 10"
(06/26/2025 07:00:52PM) Core:2 "SUBTRACT result59 = 67 - 84"
(06/26/2025 07:00:53PM) Core:2 "ADD result60 = 84 + 50"
(06/26/2025 07:00:53PM) Core:2 "Loop iteration 1"
(06/26/2025 07:00:53PM) Core:2 "Loop iteration 2"
(06/26/2025 07:00:53PM) Core:2 "Loop iteration 3"
(06/26/2025 07:00:53PM) Core:2 "Loop iteration 1"
(06/26/2025 07:00:53PM) Core:2 "Loop iteration 2"
(06/26/2025 07:00:53PM) Core:2 "Loop iteration 3"
(06/26/2025 07:00:53PM) Core:2 "Loop iteration 1"
(06/26/2025 07:00:53PM) Core:2 "Loop iteration 2"
(06/26/2025 07:00:53PM) Core:2 "Loop iteration 3"
(06/26/2025 07:00:53PM) Core:2 "Loop iteration 1"
(06/26/2025 07:00:53PM) Core:2 "Loop iteration 2"
(06/26/2025 07:00:53PM) Core:2 "Loop iteration 3"
(06/26/2025 07:00:53PM) Core:2 "Loop iteration 1"
(06/26/2025 07:00:53PM) Core:2 "Loop iteration 2"
(06/26/2025 07:00:53PM) Core:2 "Loop iteration 3"
(06/26/2025 07:00:53PM) Core:2 "ADD result62 = 10 + 93"
(06/26/2025 07:00:53PM) Core:2 "Hello from p87 [64]"
(06/26/2025 07:00:53PM) Core:2 "DECLARE var65 = 85"
(06/26/2025 07:00:53PM) Core:2 "Loop iteration 1"
(06/26/2025 07:00:53PM) Core:2 "Loop iteration 2"
(06/26/2025 07:00:53PM) Core:2 "Loop iteration 3"
(06/26/2025 07:00:53PM) Core:2 "Loop iteration 1"
(06/26/2025 07:00:53PM) Core:2 "Loop iteration 2"
(06/26/2025 07:00:53PM) Core:2 "Loop iteration 3"
(06/26/2025 07:00:53PM) Core:2 "Loop iteration 1"
(06/26/2025 07:00:53PM) Core:2 "Loop iteration 2"
(06/26/2025 07:00:53PM) Core:2 "Loop iteration 3"
(06/26/2025 07:00:53PM) Core:2 "Loop iteration 1"
(06/26/2025 07:00:53PM) Core:2 "Loop iteration 2"
(06/26/2025 07:00:53PM) Core:2 "Loop iteration 3"
(06/26/2025 07:00:53PM) Core:2 "Loop iteration 1"
(06/26/2025 07:00:53PM) Core:2 "Loop iteration 2"
(06/26/2025 07:00:53PM) Core:2 "Loop iteration 3"
(06/26/2025 07:00:53PM) Core:2 "Loop iteration 1"
(06/26/2025 07:00:53PM) Core:2 "Loop iteration 2"
(06/26/2025 07:00:53PM) Core:2 "Loop iteration 3"
(06/26/2025 07:00:53PM) Core:2 "Loop iteration 1"
(06/26/2025 07:00:53PM) Core:2 "Loop iteration 2"
(06/26/2025 07:00:53PM) Core:2 "Loop iteration 3"
