(06/27/2025 09:34:45PM) Core:1 "[(06/27/2025 09:34:45PM)] Core 1 | PID 1270 | DECLARE: var0 = 35"
(06/27/2025 09:34:45PM) Core:1 "[(06/27/2025 09:34:45PM)] Core 1 | PID 1270 | DECLARE: var1 = 6"
(06/27/2025 09:34:45PM) Core:1 "[(06/27/2025 09:34:45PM)] Core 1 | PID 1270 | DECLARE: var2 = 78"
(06/27/2025 09:34:45PM) Core:1 "[(06/27/2025 09:34:45PM)] Core 1 | PID 1270 | DECLARE: var3 = 69"
(06/27/2025 09:34:45PM) Core:1 "[(06/27/2025 09:34:45PM)] Core 1 | PID 1270 | DECLARE: var4 = 83"
(06/27/2025 09:34:45PM) Core:1 "[(06/27/2025 09:34:45PM)] Core 1 | PID 1270 | ADD: 35 + 6 = 41 ? sum5"
(06/27/2025 09:34:45PM) Core:1 "[(06/27/2025 09:34:45PM)] Core 1 | PID 1270 | DECLARE: var6 = 21"
(06/27/2025 09:34:45PM) Core:1 "[(06/27/2025 09:34:45PM)] Core 1 | PID 1270 | DECLARE: var7 = 56"
(06/27/2025 09:34:45PM) Core:1 "[(06/27/2025 09:34:45PM)] Core 1 | PID 1270 | ADD: 69 + 83 = 152 ? sum8"
(06/27/2025 09:34:46PM) Core:1 "SLEEP for 132ms"
(06/27/2025 09:34:46PM) Core:1 "  FOR loop level 1 starting (4 iterations)"
(06/27/2025 09:34:46PM) Core:1 "[(06/27/2025 09:34:46PM)] Core 1 | PID 1270 | PRINT: "Loop iteration 1 in process_271""
(06/27/2025 09:34:46PM) Core:1 "[(06/27/2025 09:34:46PM)] Core 1 | PID 1270 | PRINT: "Loop iteration 2 in process_271""
(06/27/2025 09:34:46PM) Core:1 "[(06/27/2025 09:34:46PM)] Core 1 | PID 1270 | PRINT: "Loop iteration 3 in process_271""
(06/27/2025 09:34:46PM) Core:1 "[(06/27/2025 09:34:46PM)] Core 1 | PID 1270 | PRINT: "Loop iteration 1 in process_271""
(06/27/2025 09:34:46PM) Core:1 "[(06/27/2025 09:34:46PM)] Core 1 | PID 1270 | PRINT: "Loop iteration 2 in process_271""
(06/27/2025 09:34:46PM) Core:1 "[(06/27/2025 09:34:46PM)] Core 1 | PID 1270 | PRINT: "Loop iteration 3 in process_271""
(06/27/2025 09:34:46PM) Core:1 "[(06/27/2025 09:34:46PM)] Core 1 | PID 1270 | PRINT: "Loop iteration 1 in process_271""
(06/27/2025 09:34:46PM) Core:1 "[(06/27/2025 09:34:46PM)] Core 1 | PID 1270 | PRINT: "Loop iteration 2 in process_271""
(06/27/2025 09:34:46PM) Core:1 "[(06/27/2025 09:34:46PM)] Core 1 | PID 1270 | PRINT: "Loop iteration 3 in process_271""
(06/27/2025 09:34:46PM) Core:1 "[(06/27/2025 09:34:46PM)] Core 1 | PID 1270 | PRINT: "Loop iteration 1 in process_271""
(06/27/2025 09:34:46PM) Core:1 "[(06/27/2025 09:34:46PM)] Core 1 | PID 1270 | PRINT: "Loop iteration 2 in process_271""
(06/27/2025 09:34:46PM) Core:1 "[(06/27/2025 09:34:46PM)] Core 1 | PID 1270 | PRINT: "Loop iteration 3 in process_271""
(06/27/2025 09:34:46PM) Core:1 "  FOR loop level 1 completed"
(06/27/2025 09:34:46PM) Core:1 "[(06/27/2025 09:34:46PM)] Core 1 | PID 1270 | SUBTRACT: 6 - 78 = 0 ? diff11"
(06/27/2025 09:34:46PM) Core:1 "[(06/27/2025 09:34:46PM)] Core 1 | PID 1270 | SUBTRACT: 78 - 69 = 9 ? diff12"
(06/27/2025 09:34:46PM) Core:1 "[(06/27/2025 09:34:46PM)] Core 1 | PID 1270 | DECLARE: var13 = 100"
(06/27/2025 09:34:46PM) Core:1 "[(06/27/2025 09:34:46PM)] Core 1 | PID 1270 | ADD: 83 + 35 = 118 ? sum14"
(06/27/2025 09:34:46PM) Core:1 "[(06/27/2025 09:34:46PM)] Core 1 | PID 1270 | DECLARE: var15 = 100"
(06/27/2025 09:34:46PM) Core:1 "[(06/27/2025 09:34:46PM)] Core 1 | PID 1270 | ADD: 6 + 78 = 84 ? sum16"
(06/27/2025 09:34:46PM) Core:1 "[(06/27/2025 09:34:46PM)] Core 1 | PID 1270 | SUBTRACT: 78 - 69 = 9 ? diff17"
(06/27/2025 09:34:46PM) Core:1 "[(06/27/2025 09:34:46PM)] Core 1 | PID 1270 | DECLARE: var18 = 99"
(06/27/2025 09:34:46PM) Core:1 "[(06/27/2025 09:34:46PM)] Core 1 | PID 1270 | PRINT: "Hello from process_271 [instruction 19]""
(06/27/2025 09:34:46PM) Core:1 "[(06/27/2025 09:34:46PM)] Core 1 | PID 1270 | SUBTRACT: 35 - 6 = 29 ? diff20"
(06/27/2025 09:34:46PM) Core:1 "[(06/27/2025 09:34:46PM)] Core 1 | PID 1270 | ADD: 6 + 78 = 84 ? sum21"
(06/27/2025 09:34:46PM) Core:1 "[(06/27/2025 09:34:46PM)] Core 1 | PID 1270 | ADD: 78 + 69 = 147 ? sum22"
(06/27/2025 09:34:46PM) Core:1 "[(06/27/2025 09:34:46PM)] Core 1 | PID 1270 | SUBTRACT: 69 - 83 = 0 ? diff23"
(06/27/2025 09:34:46PM) Core:1 "[(06/27/2025 09:34:46PM)] Core 1 | PID 1270 | SUBTRACT: 83 - 35 = 48 ? diff24"
(06/27/2025 09:34:46PM) Core:1 "[(06/27/2025 09:34:46PM)] Core 1 | PID 1270 | PRINT: "Hello from process_271 [instruction 25]""
(06/27/2025 09:34:46PM) Core:1 "[(06/27/2025 09:34:46PM)] Core 1 | PID 1270 | ADD: 6 + 78 = 84 ? sum26"
(06/27/2025 09:34:46PM) Core:1 "[(06/27/2025 09:34:46PM)] Core 1 | PID 1270 | SUBTRACT: 78 - 69 = 9 ? diff27"
(06/27/2025 09:34:46PM) Core:1 "[(06/27/2025 09:34:46PM)] Core 1 | PID 1270 | PRINT: "Hello from process_271 [instruction 28]""
(06/27/2025 09:34:46PM) Core:1 "[(06/27/2025 09:34:46PM)] Core 1 | PID 1270 | ADD: 83 + 35 = 118 ? sum29"
(06/27/2025 09:34:46PM) Core:1 "[(06/27/2025 09:34:46PM)] Core 1 | PID 1270 | DECLARE: var30 = 95"
(06/27/2025 09:34:46PM) Core:1 "[(06/27/2025 09:34:46PM)] Core 1 | PID 1270 | PRINT: "Hello from process_271 [instruction 31]""
(06/27/2025 09:34:46PM) Core:1 "  FOR loop level 1 starting (4 iterations)"
(06/27/2025 09:34:46PM) Core:1 "[(06/27/2025 09:34:46PM)] Core 1 | PID 1270 | PRINT: "Loop iteration 1 in process_271""
(06/27/2025 09:34:46PM) Core:1 "[(06/27/2025 09:34:46PM)] Core 1 | PID 1270 | PRINT: "Loop iteration 2 in process_271""
(06/27/2025 09:34:46PM) Core:1 "[(06/27/2025 09:34:46PM)] Core 1 | PID 1270 | PRINT: "Loop iteration 3 in process_271""
(06/27/2025 09:34:46PM) Core:1 "[(06/27/2025 09:34:46PM)] Core 1 | PID 1270 | PRINT: "Loop iteration 1 in process_271""
(06/27/2025 09:34:46PM) Core:1 "[(06/27/2025 09:34:46PM)] Core 1 | PID 1270 | PRINT: "Loop iteration 2 in process_271""
(06/27/2025 09:34:46PM) Core:1 "[(06/27/2025 09:34:46PM)] Core 1 | PID 1270 | PRINT: "Loop iteration 3 in process_271""
(06/27/2025 09:34:46PM) Core:1 "[(06/27/2025 09:34:46PM)] Core 1 | PID 1270 | PRINT: "Loop iteration 1 in process_271""
(06/27/2025 09:34:46PM) Core:1 "[(06/27/2025 09:34:46PM)] Core 1 | PID 1270 | PRINT: "Loop iteration 2 in process_271""
(06/27/2025 09:34:46PM) Core:1 "[(06/27/2025 09:34:46PM)] Core 1 | PID 1270 | PRINT: "Loop iteration 3 in process_271""
(06/27/2025 09:34:46PM) Core:1 "[(06/27/2025 09:34:46PM)] Core 1 | PID 1270 | PRINT: "Loop iteration 1 in process_271""
(06/27/2025 09:34:46PM) Core:1 "[(06/27/2025 09:34:46PM)] Core 1 | PID 1270 | PRINT: "Loop iteration 2 in process_271""
(06/27/2025 09:34:46PM) Core:1 "[(06/27/2025 09:34:46PM)] Core 1 | PID 1270 | PRINT: "Loop iteration 3 in process_271""
(06/27/2025 09:34:46PM) Core:1 "  FOR loop level 1 completed"
(06/27/2025 09:34:46PM) Core:1 "[(06/27/2025 09:34:46PM)] Core 1 | PID 1270 | ADD: 69 + 83 = 152 ? sum33"
(06/27/2025 09:34:46PM) Core:1 "[(06/27/2025 09:34:46PM)] Core 1 | PID 1270 | DECLARE: var34 = 41"
(06/27/2025 09:34:46PM) Core:1 "SLEEP for 221ms"
(06/27/2025 09:34:46PM) Core:1 "[(06/27/2025 09:34:46PM)] Core 1 | PID 1270 | DECLARE: var36 = 70"
(06/27/2025 09:34:46PM) Core:1 "[(06/27/2025 09:34:46PM)] Core 1 | PID 1270 | DECLARE: var37 = 73"
(06/27/2025 09:34:46PM) Core:1 "[(06/27/2025 09:34:46PM)] Core 1 | PID 1270 | DECLARE: var38 = 26"
(06/27/2025 09:34:46PM) Core:1 "  FOR loop level 1 starting (4 iterations)"
(06/27/2025 09:34:46PM) Core:1 "[(06/27/2025 09:34:46PM)] Core 1 | PID 1270 | PRINT: "Loop iteration 1 in process_271""
(06/27/2025 09:34:46PM) Core:1 "[(06/27/2025 09:34:46PM)] Core 1 | PID 1270 | PRINT: "Loop iteration 2 in process_271""
(06/27/2025 09:34:46PM) Core:1 "[(06/27/2025 09:34:46PM)] Core 1 | PID 1270 | PRINT: "Loop iteration 3 in process_271""
(06/27/2025 09:34:46PM) Core:1 "[(06/27/2025 09:34:46PM)] Core 1 | PID 1270 | PRINT: "Loop iteration 1 in process_271""
(06/27/2025 09:34:46PM) Core:1 "[(06/27/2025 09:34:46PM)] Core 1 | PID 1270 | PRINT: "Loop iteration 2 in process_271""
(06/27/2025 09:34:46PM) Core:1 "[(06/27/2025 09:34:46PM)] Core 1 | PID 1270 | PRINT: "Loop iteration 3 in process_271""
(06/27/2025 09:34:46PM) Core:1 "[(06/27/2025 09:34:46PM)] Core 1 | PID 1270 | PRINT: "Loop iteration 1 in process_271""
(06/27/2025 09:34:46PM) Core:1 "[(06/27/2025 09:34:46PM)] Core 1 | PID 1270 | PRINT: "Loop iteration 2 in process_271""
(06/27/2025 09:34:46PM) Core:1 "[(06/27/2025 09:34:46PM)] Core 1 | PID 1270 | PRINT: "Loop iteration 3 in process_271""
(06/27/2025 09:34:46PM) Core:1 "[(06/27/2025 09:34:46PM)] Core 1 | PID 1270 | PRINT: "Loop iteration 1 in process_271""
(06/27/2025 09:34:46PM) Core:1 "[(06/27/2025 09:34:46PM)] Core 1 | PID 1270 | PRINT: "Loop iteration 2 in process_271""
(06/27/2025 09:34:46PM) Core:1 "[(06/27/2025 09:34:46PM)] Core 1 | PID 1270 | PRINT: "Loop iteration 3 in process_271""
(06/27/2025 09:34:46PM) Core:1 "  FOR loop level 1 completed"
(06/27/2025 09:34:46PM) Core:1 "[(06/27/2025 09:34:46PM)] Core 1 | PID 1270 | PRINT: "Hello from process_271 [instruction 40]""
(06/27/2025 09:34:46PM) Core:1 "[(06/27/2025 09:34:46PM)] Core 1 | PID 1270 | ADD: 6 + 78 = 84 ? sum41"
(06/27/2025 09:34:46PM) Core:1 "  FOR loop level 1 starting (2 iterations)"
(06/27/2025 09:34:46PM) Core:1 "[(06/27/2025 09:34:46PM)] Core 1 | PID 1270 | PRINT: "Loop iteration 1 in process_271""
(06/27/2025 09:34:46PM) Core:1 "[(06/27/2025 09:34:46PM)] Core 1 | PID 1270 | PRINT: "Loop iteration 2 in process_271""
(06/27/2025 09:34:46PM) Core:1 "[(06/27/2025 09:34:46PM)] Core 1 | PID 1270 | PRINT: "Loop iteration 3 in process_271""
(06/27/2025 09:34:46PM) Core:1 "[(06/27/2025 09:34:46PM)] Core 1 | PID 1270 | PRINT: "Loop iteration 1 in process_271""
(06/27/2025 09:34:46PM) Core:1 "[(06/27/2025 09:34:46PM)] Core 1 | PID 1270 | PRINT: "Loop iteration 2 in process_271""
(06/27/2025 09:34:46PM) Core:1 "[(06/27/2025 09:34:46PM)] Core 1 | PID 1270 | PRINT: "Loop iteration 3 in process_271""
(06/27/2025 09:34:46PM) Core:1 "  FOR loop level 1 completed"
(06/27/2025 09:34:46PM) Core:1 "[(06/27/2025 09:34:46PM)] Core 1 | PID 1270 | DECLARE: var43 = 41"
(06/27/2025 09:34:46PM) Core:1 "[(06/27/2025 09:34:46PM)] Core 1 | PID 1270 | DECLARE: var44 = 99"
(06/27/2025 09:34:46PM) Core:1 "[(06/27/2025 09:34:46PM)] Core 1 | PID 1270 | DECLARE: var45 = 68"
(06/27/2025 09:34:46PM) Core:1 "[(06/27/2025 09:34:46PM)] Core 1 | PID 1270 | ADD: 6 + 78 = 84 ? sum46"
(06/27/2025 09:34:46PM) Core:1 "[(06/27/2025 09:34:46PM)] Core 1 | PID 1270 | PRINT: "Hello from process_271 [instruction 47]""
(06/27/2025 09:34:46PM) Core:1 "  FOR loop level 1 starting (2 iterations)"
(06/27/2025 09:34:46PM) Core:1 "[(06/27/2025 09:34:46PM)] Core 1 | PID 1270 | PRINT: "Loop iteration 1 in process_271""
(06/27/2025 09:34:46PM) Core:1 "[(06/27/2025 09:34:46PM)] Core 1 | PID 1270 | PRINT: "Loop iteration 2 in process_271""
(06/27/2025 09:34:46PM) Core:1 "[(06/27/2025 09:34:46PM)] Core 1 | PID 1270 | PRINT: "Loop iteration 3 in process_271""
(06/27/2025 09:34:46PM) Core:1 "[(06/27/2025 09:34:46PM)] Core 1 | PID 1270 | PRINT: "Loop iteration 1 in process_271""
(06/27/2025 09:34:46PM) Core:1 "[(06/27/2025 09:34:46PM)] Core 1 | PID 1270 | PRINT: "Loop iteration 2 in process_271""
(06/27/2025 09:34:46PM) Core:1 "[(06/27/2025 09:34:46PM)] Core 1 | PID 1270 | PRINT: "Loop iteration 3 in process_271""
(06/27/2025 09:34:46PM) Core:1 "  FOR loop level 1 completed"
(06/27/2025 09:34:46PM) Core:1 "[(06/27/2025 09:34:46PM)] Core 1 | PID 1270 | SUBTRACT: 83 - 35 = 48 ? diff49"
(06/27/2025 09:34:46PM) Core:1 "Process completed successfully"
(06/27/2025 09:58:53PM) Core:2 "[(06/27/2025 09:58:53PM)] Core 2 | PID 1270 | DECLARE: var0 = 60"
(06/27/2025 09:58:53PM) Core:2 "[(06/27/2025 09:58:53PM)] Core 2 | PID 1270 | DECLARE: var1 = 15"
(06/27/2025 09:58:53PM) Core:2 "[(06/27/2025 09:58:53PM)] Core 2 | PID 1270 | DECLARE: var2 = 37"
(06/27/2025 09:58:53PM) Core:2 "[(06/27/2025 09:58:53PM)] Core 2 | PID 1270 | DECLARE: var3 = 49"
(06/27/2025 09:58:53PM) Core:2 "[(06/27/2025 09:58:53PM)] Core 2 | PID 1270 | DECLARE: var4 = 61"
(06/27/2025 09:58:53PM) Core:2 "Process completed successfully"
