(06/27/2025 09:31:30PM) Core:0 "[(06/27/2025 09:31:30PM)] Core 0 | PID 1076 | DECLARE: var0 = 15"
(06/27/2025 09:31:30PM) Core:0 "[(06/27/2025 09:31:30PM)] Core 0 | PID 1076 | DECLARE: var1 = 80"
(06/27/2025 09:31:30PM) Core:0 "[(06/27/2025 09:31:30PM)] Core 0 | PID 1076 | DECLARE: var2 = 50"
(06/27/2025 09:31:30PM) Core:0 "[(06/27/2025 09:31:30PM)] Core 0 | PID 1076 | DECLARE: var3 = 97"
(06/27/2025 09:31:30PM) Core:0 "[(06/27/2025 09:31:30PM)] Core 0 | PID 1076 | DECLARE: var4 = 73"
(06/27/2025 09:31:30PM) Core:0 "[(06/27/2025 09:31:30PM)] Core 0 | PID 1076 | SUBTRACT: 15 - 80 = 0 ? diff5"
(06/27/2025 09:31:30PM) Core:0 "[(06/27/2025 09:31:30PM)] Core 0 | PID 1076 | ADD: 80 + 50 = 130 ? sum6"
(06/27/2025 09:31:30PM) Core:0 "[(06/27/2025 09:31:30PM)] Core 0 | PID 1076 | DECLARE: var7 = 25"
(06/27/2025 09:31:30PM) Core:0 "[(06/27/2025 09:31:30PM)] Core 0 | PID 1076 | DECLARE: var8 = 74"
(06/27/2025 09:31:30PM) Core:0 "[(06/27/2025 09:31:30PM)] Core 0 | PID 1076 | SUBTRACT: 73 - 15 = 58 ? diff9"
(06/27/2025 09:31:30PM) Core:0 "[(06/27/2025 09:31:30PM)] Core 0 | PID 1076 | PRINT: "Hello from process_77 [instruction 10]""
(06/27/2025 09:31:30PM) Core:0 "  FOR loop level 1 starting (3 iterations)"
(06/27/2025 09:31:30PM) Core:0 "[(06/27/2025 09:31:30PM)] Core 0 | PID 1076 | PRINT: "Loop iteration 1 in process_77""
(06/27/2025 09:31:30PM) Core:0 "[(06/27/2025 09:31:30PM)] Core 0 | PID 1076 | PRINT: "Loop iteration 2 in process_77""
(06/27/2025 09:31:30PM) Core:0 "[(06/27/2025 09:31:30PM)] Core 0 | PID 1076 | PRINT: "Loop iteration 3 in process_77""
(06/27/2025 09:31:30PM) Core:0 "[(06/27/2025 09:31:30PM)] Core 0 | PID 1076 | PRINT: "Loop iteration 1 in process_77""
(06/27/2025 09:31:30PM) Core:0 "[(06/27/2025 09:31:30PM)] Core 0 | PID 1076 | PRINT: "Loop iteration 2 in process_77""
(06/27/2025 09:31:30PM) Core:0 "[(06/27/2025 09:31:30PM)] Core 0 | PID 1076 | PRINT: "Loop iteration 3 in process_77""
(06/27/2025 09:31:30PM) Core:0 "[(06/27/2025 09:31:30PM)] Core 0 | PID 1076 | PRINT: "Loop iteration 1 in process_77""
(06/27/2025 09:31:30PM) Core:0 "[(06/27/2025 09:31:30PM)] Core 0 | PID 1076 | PRINT: "Loop iteration 2 in process_77""
(06/27/2025 09:31:30PM) Core:0 "[(06/27/2025 09:31:30PM)] Core 0 | PID 1076 | PRINT: "Loop iteration 3 in process_77""
(06/27/2025 09:31:30PM) Core:0 "  FOR loop level 1 completed"
(06/27/2025 09:31:30PM) Core:0 "[(06/27/2025 09:31:30PM)] Core 0 | PID 1076 | PRINT: "Hello from process_77 [instruction 12]""
(06/27/2025 09:31:30PM) Core:0 "[(06/27/2025 09:31:30PM)] Core 0 | PID 1076 | DECLARE: var13 = 54"
(06/27/2025 09:31:30PM) Core:0 "[(06/27/2025 09:31:30PM)] Core 0 | PID 1076 | PRINT: "Hello from process_77 [instruction 14]""
(06/27/2025 09:31:30PM) Core:0 "[(06/27/2025 09:31:30PM)] Core 0 | PID 1076 | ADD: 15 + 80 = 95 ? sum15"
(06/27/2025 09:31:30PM) Core:0 "[(06/27/2025 09:31:30PM)] Core 0 | PID 1076 | DECLARE: var16 = 82"
(06/27/2025 09:31:30PM) Core:0 "[(06/27/2025 09:31:30PM)] Core 0 | PID 1076 | ADD: 50 + 97 = 147 ? sum17"
(06/27/2025 09:31:30PM) Core:0 "  FOR loop level 1 starting (2 iterations)"
(06/27/2025 09:31:30PM) Core:0 "[(06/27/2025 09:31:30PM)] Core 0 | PID 1076 | PRINT: "Loop iteration 1 in process_77""
(06/27/2025 09:31:30PM) Core:0 "[(06/27/2025 09:31:30PM)] Core 0 | PID 1076 | PRINT: "Loop iteration 2 in process_77""
(06/27/2025 09:31:30PM) Core:0 "[(06/27/2025 09:31:30PM)] Core 0 | PID 1076 | PRINT: "Loop iteration 3 in process_77""
(06/27/2025 09:31:30PM) Core:0 "[(06/27/2025 09:31:30PM)] Core 0 | PID 1076 | PRINT: "Loop iteration 1 in process_77""
(06/27/2025 09:31:30PM) Core:0 "[(06/27/2025 09:31:30PM)] Core 0 | PID 1076 | PRINT: "Loop iteration 2 in process_77""
(06/27/2025 09:31:30PM) Core:0 "[(06/27/2025 09:31:30PM)] Core 0 | PID 1076 | PRINT: "Loop iteration 3 in process_77""
(06/27/2025 09:31:30PM) Core:0 "  FOR loop level 1 completed"
(06/27/2025 09:31:30PM) Core:0 "  FOR loop level 1 starting (4 iterations)"
(06/27/2025 09:31:30PM) Core:0 "[(06/27/2025 09:31:30PM)] Core 0 | PID 1076 | PRINT: "Loop iteration 1 in process_77""
(06/27/2025 09:31:30PM) Core:0 "[(06/27/2025 09:31:30PM)] Core 0 | PID 1076 | PRINT: "Loop iteration 2 in process_77""
(06/27/2025 09:31:30PM) Core:0 "[(06/27/2025 09:31:30PM)] Core 0 | PID 1076 | PRINT: "Loop iteration 3 in process_77""
(06/27/2025 09:31:30PM) Core:0 "[(06/27/2025 09:31:30PM)] Core 0 | PID 1076 | PRINT: "Loop iteration 1 in process_77""
(06/27/2025 09:31:30PM) Core:0 "[(06/27/2025 09:31:30PM)] Core 0 | PID 1076 | PRINT: "Loop iteration 2 in process_77""
(06/27/2025 09:31:30PM) Core:0 "[(06/27/2025 09:31:30PM)] Core 0 | PID 1076 | PRINT: "Loop iteration 3 in process_77""
(06/27/2025 09:31:30PM) Core:0 "[(06/27/2025 09:31:30PM)] Core 0 | PID 1076 | PRINT: "Loop iteration 1 in process_77""
(06/27/2025 09:31:30PM) Core:0 "[(06/27/2025 09:31:30PM)] Core 0 | PID 1076 | PRINT: "Loop iteration 2 in process_77""
(06/27/2025 09:31:30PM) Core:0 "[(06/27/2025 09:31:30PM)] Core 0 | PID 1076 | PRINT: "Loop iteration 3 in process_77""
(06/27/2025 09:31:30PM) Core:0 "[(06/27/2025 09:31:30PM)] Core 0 | PID 1076 | PRINT: "Loop iteration 1 in process_77""
(06/27/2025 09:31:30PM) Core:0 "[(06/27/2025 09:31:30PM)] Core 0 | PID 1076 | PRINT: "Loop iteration 2 in process_77""
(06/27/2025 09:31:30PM) Core:0 "[(06/27/2025 09:31:30PM)] Core 0 | PID 1076 | PRINT: "Loop iteration 3 in process_77""
(06/27/2025 09:31:30PM) Core:0 "  FOR loop level 1 completed"
(06/27/2025 09:31:30PM) Core:0 "[(06/27/2025 09:31:30PM)] Core 0 | PID 1076 | DECLARE: var20 = 71"
(06/27/2025 09:31:30PM) Core:0 "SLEEP for 149ms"
(06/27/2025 09:31:30PM) Core:0 "[(06/27/2025 09:31:30PM)] Core 0 | PID 1076 | SUBTRACT: 50 - 97 = 0 ? diff22"
(06/27/2025 09:31:30PM) Core:0 "[(06/27/2025 09:31:30PM)] Core 0 | PID 1076 | DECLARE: var23 = 26"
(06/27/2025 09:31:30PM) Core:0 "SLEEP for 128ms"
(06/27/2025 09:31:30PM) Core:0 "[(06/27/2025 09:31:30PM)] Core 0 | PID 1076 | PRINT: "Hello from process_77 [instruction 25]""
(06/27/2025 09:31:30PM) Core:0 "  FOR loop level 1 starting (4 iterations)"
(06/27/2025 09:31:30PM) Core:0 "[(06/27/2025 09:31:30PM)] Core 0 | PID 1076 | PRINT: "Loop iteration 1 in process_77""
(06/27/2025 09:31:30PM) Core:0 "[(06/27/2025 09:31:30PM)] Core 0 | PID 1076 | PRINT: "Loop iteration 2 in process_77""
(06/27/2025 09:31:30PM) Core:0 "[(06/27/2025 09:31:30PM)] Core 0 | PID 1076 | PRINT: "Loop iteration 3 in process_77""
(06/27/2025 09:31:30PM) Core:0 "[(06/27/2025 09:31:30PM)] Core 0 | PID 1076 | PRINT: "Loop iteration 1 in process_77""
(06/27/2025 09:31:30PM) Core:0 "[(06/27/2025 09:31:30PM)] Core 0 | PID 1076 | PRINT: "Loop iteration 2 in process_77""
(06/27/2025 09:31:30PM) Core:0 "[(06/27/2025 09:31:30PM)] Core 0 | PID 1076 | PRINT: "Loop iteration 3 in process_77""
(06/27/2025 09:31:30PM) Core:0 "[(06/27/2025 09:31:30PM)] Core 0 | PID 1076 | PRINT: "Loop iteration 1 in process_77""
(06/27/2025 09:31:30PM) Core:0 "[(06/27/2025 09:31:30PM)] Core 0 | PID 1076 | PRINT: "Loop iteration 2 in process_77""
(06/27/2025 09:31:30PM) Core:0 "[(06/27/2025 09:31:30PM)] Core 0 | PID 1076 | PRINT: "Loop iteration 3 in process_77""
(06/27/2025 09:31:30PM) Core:0 "[(06/27/2025 09:31:30PM)] Core 0 | PID 1076 | PRINT: "Loop iteration 1 in process_77""
(06/27/2025 09:31:30PM) Core:0 "[(06/27/2025 09:31:30PM)] Core 0 | PID 1076 | PRINT: "Loop iteration 2 in process_77""
(06/27/2025 09:31:30PM) Core:0 "[(06/27/2025 09:31:30PM)] Core 0 | PID 1076 | PRINT: "Loop iteration 3 in process_77""
(06/27/2025 09:31:30PM) Core:0 "  FOR loop level 1 completed"
(06/27/2025 09:31:30PM) Core:0 "[(06/27/2025 09:31:30PM)] Core 0 | PID 1076 | PRINT: "Hello from process_77 [instruction 27]""
(06/27/2025 09:31:30PM) Core:0 "[(06/27/2025 09:31:30PM)] Core 0 | PID 1076 | SUBTRACT: 97 - 73 = 24 ? diff28"
(06/27/2025 09:31:31PM) Core:0 "SLEEP for 332ms"
(06/27/2025 09:31:31PM) Core:0 "[(06/27/2025 09:31:31PM)] Core 0 | PID 1076 | PRINT: "Hello from process_77 [instruction 30]""
(06/27/2025 09:31:31PM) Core:0 "SLEEP for 149ms"
(06/27/2025 09:31:31PM) Core:0 "  FOR loop level 1 starting (4 iterations)"
(06/27/2025 09:31:31PM) Core:0 "[(06/27/2025 09:31:31PM)] Core 0 | PID 1076 | PRINT: "Loop iteration 1 in process_77""
(06/27/2025 09:31:31PM) Core:0 "[(06/27/2025 09:31:31PM)] Core 0 | PID 1076 | PRINT: "Loop iteration 2 in process_77""
(06/27/2025 09:31:31PM) Core:0 "[(06/27/2025 09:31:31PM)] Core 0 | PID 1076 | PRINT: "Loop iteration 3 in process_77""
(06/27/2025 09:31:31PM) Core:0 "[(06/27/2025 09:31:31PM)] Core 0 | PID 1076 | PRINT: "Loop iteration 1 in process_77""
(06/27/2025 09:31:31PM) Core:0 "[(06/27/2025 09:31:31PM)] Core 0 | PID 1076 | PRINT: "Loop iteration 2 in process_77""
(06/27/2025 09:31:31PM) Core:0 "[(06/27/2025 09:31:31PM)] Core 0 | PID 1076 | PRINT: "Loop iteration 3 in process_77""
(06/27/2025 09:31:31PM) Core:0 "[(06/27/2025 09:31:31PM)] Core 0 | PID 1076 | PRINT: "Loop iteration 1 in process_77""
(06/27/2025 09:31:31PM) Core:0 "[(06/27/2025 09:31:31PM)] Core 0 | PID 1076 | PRINT: "Loop iteration 2 in process_77""
(06/27/2025 09:31:31PM) Core:0 "[(06/27/2025 09:31:31PM)] Core 0 | PID 1076 | PRINT: "Loop iteration 3 in process_77""
(06/27/2025 09:31:31PM) Core:0 "[(06/27/2025 09:31:31PM)] Core 0 | PID 1076 | PRINT: "Loop iteration 1 in process_77""
(06/27/2025 09:31:31PM) Core:0 "[(06/27/2025 09:31:31PM)] Core 0 | PID 1076 | PRINT: "Loop iteration 2 in process_77""
(06/27/2025 09:31:31PM) Core:0 "[(06/27/2025 09:31:31PM)] Core 0 | PID 1076 | PRINT: "Loop iteration 3 in process_77""
(06/27/2025 09:31:31PM) Core:0 "  FOR loop level 1 completed"
(06/27/2025 09:31:31PM) Core:0 "[(06/27/2025 09:31:31PM)] Core 0 | PID 1076 | PRINT: "Hello from process_77 [instruction 33]""
(06/27/2025 09:31:31PM) Core:0 "SLEEP for 174ms"
(06/27/2025 09:31:31PM) Core:0 "[(06/27/2025 09:31:31PM)] Core 0 | PID 1076 | PRINT: "Hello from process_77 [instruction 35]""
(06/27/2025 09:31:31PM) Core:0 "[(06/27/2025 09:31:31PM)] Core 0 | PID 1076 | DECLARE: var36 = 12"
(06/27/2025 09:31:31PM) Core:0 "[(06/27/2025 09:31:31PM)] Core 0 | PID 1076 | PRINT: "Hello from process_77 [instruction 37]""
(06/27/2025 09:31:31PM) Core:0 "[(06/27/2025 09:31:31PM)] Core 0 | PID 1076 | PRINT: "Hello from process_77 [instruction 38]""
(06/27/2025 09:31:31PM) Core:0 "Process completed successfully"
(06/27/2025 09:53:28PM) Core:0 "[(06/27/2025 09:53:28PM)] Core 0 | PID 1077 | DECLARE: var0 = 7"
(06/27/2025 09:53:28PM) Core:0 "[(06/27/2025 09:53:28PM)] Core 0 | PID 1077 | DECLARE: var1 = 40"
(06/27/2025 09:53:28PM) Core:0 "[(06/27/2025 09:53:28PM)] Core 0 | PID 1077 | DECLARE: var2 = 2"
(06/27/2025 09:53:28PM) Core:0 "[(06/27/2025 09:53:28PM)] Core 0 | PID 1077 | DECLARE: var3 = 7"
(06/27/2025 09:53:28PM) Core:0 "[(06/27/2025 09:53:28PM)] Core 0 | PID 1077 | DECLARE: var4 = 74"
(06/27/2025 09:53:28PM) Core:0 "[(06/27/2025 09:53:28PM)] Core 0 | PID 1077 | SUBTRACT: 7 - 40 = 0 ? diff5"
(06/27/2025 09:53:28PM) Core:0 "  FOR loop level 1 starting (4 iterations)"
(06/27/2025 09:53:28PM) Core:0 "[(06/27/2025 09:53:28PM)] Core 0 | PID 1077 | PRINT: "Loop iteration 1 in process_77""
(06/27/2025 09:53:28PM) Core:0 "[(06/27/2025 09:53:28PM)] Core 0 | PID 1077 | PRINT: "Loop iteration 2 in process_77""
(06/27/2025 09:53:28PM) Core:0 "[(06/27/2025 09:53:28PM)] Core 0 | PID 1077 | PRINT: "Loop iteration 3 in process_77""
(06/27/2025 09:53:28PM) Core:0 "[(06/27/2025 09:53:28PM)] Core 0 | PID 1077 | PRINT: "Loop iteration 1 in process_77""
(06/27/2025 09:53:28PM) Core:0 "[(06/27/2025 09:53:28PM)] Core 0 | PID 1077 | PRINT: "Loop iteration 2 in process_77""
(06/27/2025 09:53:28PM) Core:0 "[(06/27/2025 09:53:28PM)] Core 0 | PID 1077 | PRINT: "Loop iteration 3 in process_77""
(06/27/2025 09:53:28PM) Core:0 "[(06/27/2025 09:53:28PM)] Core 0 | PID 1077 | PRINT: "Loop iteration 1 in process_77""
(06/27/2025 09:53:28PM) Core:0 "[(06/27/2025 09:53:28PM)] Core 0 | PID 1077 | PRINT: "Loop iteration 2 in process_77""
(06/27/2025 09:53:28PM) Core:0 "[(06/27/2025 09:53:28PM)] Core 0 | PID 1077 | PRINT: "Loop iteration 3 in process_77""
(06/27/2025 09:53:28PM) Core:0 "[(06/27/2025 09:53:28PM)] Core 0 | PID 1077 | PRINT: "Loop iteration 1 in process_77""
(06/27/2025 09:53:28PM) Core:0 "[(06/27/2025 09:53:28PM)] Core 0 | PID 1077 | PRINT: "Loop iteration 2 in process_77""
(06/27/2025 09:53:28PM) Core:0 "[(06/27/2025 09:53:28PM)] Core 0 | PID 1077 | PRINT: "Loop iteration 3 in process_77""
(06/27/2025 09:53:28PM) Core:0 "  FOR loop level 1 completed"
(06/27/2025 09:53:28PM) Core:0 "[(06/27/2025 09:53:28PM)] Core 0 | PID 1077 | ADD: 2 + 7 = 9 ? sum7"
(06/27/2025 09:53:28PM) Core:0 "[(06/27/2025 09:53:28PM)] Core 0 | PID 1077 | DECLARE: var8 = 5"
(06/27/2025 09:53:28PM) Core:0 "SLEEP for 245ms"
(06/27/2025 09:53:28PM) Core:0 "[(06/27/2025 09:53:28PM)] Core 0 | PID 1077 | ADD: 7 + 40 = 47 ? sum10"
(06/27/2025 09:53:28PM) Core:0 "SLEEP for 397ms"
(06/27/2025 09:53:29PM) Core:0 "SLEEP for 429ms"
(06/27/2025 09:53:29PM) Core:0 "[(06/27/2025 09:53:29PM)] Core 0 | PID 1077 | PRINT: "Hello from process_77 [instruction 13]""
(06/27/2025 09:53:29PM) Core:0 "  FOR loop level 1 starting (3 iterations)"
(06/27/2025 09:53:29PM) Core:0 "[(06/27/2025 09:53:29PM)] Core 0 | PID 1077 | PRINT: "Loop iteration 1 in process_77""
(06/27/2025 09:53:29PM) Core:0 "[(06/27/2025 09:53:29PM)] Core 0 | PID 1077 | PRINT: "Loop iteration 2 in process_77""
(06/27/2025 09:53:29PM) Core:0 "[(06/27/2025 09:53:29PM)] Core 0 | PID 1077 | PRINT: "Loop iteration 3 in process_77""
(06/27/2025 09:53:29PM) Core:0 "[(06/27/2025 09:53:29PM)] Core 0 | PID 1077 | PRINT: "Loop iteration 1 in process_77""
(06/27/2025 09:53:29PM) Core:0 "[(06/27/2025 09:53:29PM)] Core 0 | PID 1077 | PRINT: "Loop iteration 2 in process_77""
(06/27/2025 09:53:29PM) Core:0 "[(06/27/2025 09:53:29PM)] Core 0 | PID 1077 | PRINT: "Loop iteration 3 in process_77""
(06/27/2025 09:53:29PM) Core:0 "[(06/27/2025 09:53:29PM)] Core 0 | PID 1077 | PRINT: "Loop iteration 1 in process_77""
(06/27/2025 09:53:29PM) Core:0 "[(06/27/2025 09:53:29PM)] Core 0 | PID 1077 | PRINT: "Loop iteration 2 in process_77""
(06/27/2025 09:53:29PM) Core:0 "[(06/27/2025 09:53:29PM)] Core 0 | PID 1077 | PRINT: "Loop iteration 3 in process_77""
(06/27/2025 09:53:29PM) Core:0 "  FOR loop level 1 completed"
(06/27/2025 09:53:29PM) Core:0 "SLEEP for 315ms"
(06/27/2025 09:53:29PM) Core:0 "[(06/27/2025 09:53:29PM)] Core 0 | PID 1077 | PRINT: "Hello from process_77 [instruction 16]""
(06/27/2025 09:53:29PM) Core:0 "[(06/27/2025 09:53:29PM)] Core 0 | PID 1077 | DECLARE: var17 = 87"
(06/27/2025 09:53:29PM) Core:0 "[(06/27/2025 09:53:29PM)] Core 0 | PID 1077 | PRINT: "Hello from process_77 [instruction 18]""
(06/27/2025 09:53:29PM) Core:0 "[(06/27/2025 09:53:29PM)] Core 0 | PID 1077 | SUBTRACT: 74 - 7 = 67 ? diff19"
(06/27/2025 09:53:29PM) Core:0 "Process completed successfully"
(06/27/2025 09:55:38PM) Core:1 "[(06/27/2025 09:55:38PM)] Core 1 | PID 1076 | DECLARE: var0 = 78"
(06/27/2025 09:55:38PM) Core:1 "[(06/27/2025 09:55:38PM)] Core 1 | PID 1076 | DECLARE: var1 = 41"
(06/27/2025 09:55:38PM) Core:1 "[(06/27/2025 09:55:38PM)] Core 1 | PID 1076 | DECLARE: var2 = 73"
(06/27/2025 09:55:38PM) Core:1 "[(06/27/2025 09:55:38PM)] Core 1 | PID 1076 | DECLARE: var3 = 14"
(06/27/2025 09:55:38PM) Core:1 "[(06/27/2025 09:55:38PM)] Core 1 | PID 1076 | DECLARE: var4 = 52"
(06/27/2025 09:55:38PM) Core:1 "[(06/27/2025 09:55:38PM)] Core 1 | PID 1076 | PRINT: "Hello from process_77 [instruction 5]""
(06/27/2025 09:55:38PM) Core:1 "  FOR loop level 1 starting (3 iterations)"
(06/27/2025 09:55:38PM) Core:1 "[(06/27/2025 09:55:38PM)] Core 1 | PID 1076 | PRINT: "Loop iteration 1 in process_77""
(06/27/2025 09:55:38PM) Core:1 "[(06/27/2025 09:55:38PM)] Core 1 | PID 1076 | PRINT: "Loop iteration 2 in process_77""
(06/27/2025 09:55:38PM) Core:1 "[(06/27/2025 09:55:38PM)] Core 1 | PID 1076 | PRINT: "Loop iteration 3 in process_77""
(06/27/2025 09:55:38PM) Core:1 "[(06/27/2025 09:55:38PM)] Core 1 | PID 1076 | PRINT: "Loop iteration 1 in process_77""
(06/27/2025 09:55:38PM) Core:1 "[(06/27/2025 09:55:38PM)] Core 1 | PID 1076 | PRINT: "Loop iteration 2 in process_77""
(06/27/2025 09:55:38PM) Core:1 "[(06/27/2025 09:55:38PM)] Core 1 | PID 1076 | PRINT: "Loop iteration 3 in process_77""
(06/27/2025 09:55:38PM) Core:1 "[(06/27/2025 09:55:38PM)] Core 1 | PID 1076 | PRINT: "Loop iteration 1 in process_77""
(06/27/2025 09:55:38PM) Core:1 "[(06/27/2025 09:55:38PM)] Core 1 | PID 1076 | PRINT: "Loop iteration 2 in process_77""
(06/27/2025 09:55:38PM) Core:1 "[(06/27/2025 09:55:38PM)] Core 1 | PID 1076 | PRINT: "Loop iteration 3 in process_77""
(06/27/2025 09:55:38PM) Core:1 "  FOR loop level 1 completed"
(06/27/2025 09:55:38PM) Core:1 "  FOR loop level 1 starting (3 iterations)"
(06/27/2025 09:55:38PM) Core:1 "[(06/27/2025 09:55:38PM)] Core 1 | PID 1076 | PRINT: "Loop iteration 1 in process_77""
(06/27/2025 09:55:38PM) Core:1 "[(06/27/2025 09:55:38PM)] Core 1 | PID 1076 | PRINT: "Loop iteration 2 in process_77""
(06/27/2025 09:55:38PM) Core:1 "[(06/27/2025 09:55:38PM)] Core 1 | PID 1076 | PRINT: "Loop iteration 3 in process_77""
(06/27/2025 09:55:38PM) Core:1 "[(06/27/2025 09:55:38PM)] Core 1 | PID 1076 | PRINT: "Loop iteration 1 in process_77""
(06/27/2025 09:55:38PM) Core:1 "[(06/27/2025 09:55:38PM)] Core 1 | PID 1076 | PRINT: "Loop iteration 2 in process_77""
(06/27/2025 09:55:38PM) Core:1 "[(06/27/2025 09:55:38PM)] Core 1 | PID 1076 | PRINT: "Loop iteration 3 in process_77""
(06/27/2025 09:55:38PM) Core:1 "[(06/27/2025 09:55:38PM)] Core 1 | PID 1076 | PRINT: "Loop iteration 1 in process_77""
(06/27/2025 09:55:38PM) Core:1 "[(06/27/2025 09:55:38PM)] Core 1 | PID 1076 | PRINT: "Loop iteration 2 in process_77""
(06/27/2025 09:55:38PM) Core:1 "[(06/27/2025 09:55:38PM)] Core 1 | PID 1076 | PRINT: "Loop iteration 3 in process_77""
(06/27/2025 09:55:38PM) Core:1 "  FOR loop level 1 completed"
(06/27/2025 09:55:38PM) Core:1 "Process completed successfully"
